{"training_count": 55, "total_loss": 9.182894799560009, "layers": [{"weight": [[-0.03420223295688629, 0.031095944344997406, -0.11858940124511719, 0.11523644626140594, 0.07453177124261856, -0.0034189107827842236, 0.13527926802635193, 0.09484504908323288, 0.06385714560747147, 0.03862068057060242, -0.06309107691049576, -0.0021564948838204145, 0.07269508391618729, 0.13635960221290588, -0.0788378044962883, 0.2645815312862396, -0.020014869049191475, -0.1450650840997696, 0.15395161509513855, -0.026740949600934982, 0.13779588043689728, 0.003938962239772081, 0.06388154625892639, -0.15385867655277252, -0.12515147030353546, 0.14671245217323303, -0.18902231752872467, 0.05816220864653587, 0.1419655829668045, -0.2412734180688858, -0.10749697685241699, 0.19208592176437378, 0.15050867199897766, -0.19268645346164703, 0.03298323228955269, -0.14645825326442719, -0.10642247647047043, -0.09308943152427673, -0.22336193919181824, 0.12251003086566925, -0.10628695785999298, 0.24883931875228882, -0.03272872418165207, -0.1153881847858429, 0.25183194875717163, -0.23798520863056183, 0.17923928797245026, 0.03919259086251259, -0.21997736394405365, 0.006205011159181595, -0.0295101385563612, 0.3214368522167206, -0.30917349457740784, -0.058647289872169495, -0.05866378918290138, -0.21039772033691406, 0.08812293410301208, -0.03127089515328407, 0.01752125471830368, 0.13197268545627594, 0.11749058216810226, 0.30968621373176575, -0.35488802194595337, 0.26319289207458496], [0.13521531224250793, -0.07163435965776443, -0.2086523026227951, 0.3493519425392151, -0.2609621584415436, 0.09020000696182251, -0.042414821684360504, 0.12810178101062775, -0.15944457054138184, -0.03929989039897919, 0.034278642386198044, -0.02468024753034115, 0.04991605877876282, -0.13493826985359192, 0.06475207209587097, 0.0383324921131134, 0.2737290859222412, 0.04366021230816841, -0.1128818467259407, 0.1665845662355423, -0.15468072891235352, -0.05429164320230484, 0.12765756249427795, -0.21618953347206116, -0.10480646044015884, 0.15801778435707092, 0.08929429203271866, 0.103493832051754, -0.1822836846113205, 0.093452088534832, -0.3108969032764435, 0.28509923815727234, -0.056549303233623505, -0.1674526035785675, -0.05784902721643448, 0.06710674613714218, 0.026995331048965454, 0.20404817163944244, -0.008225934579968452, 0.055652737617492676, -0.05158456787467003, 0.06000469997525215, 0.009430821053683758, 0.030947452411055565, -0.09210417419672012, 0.16949619352817535, 0.07019974291324615, -0.022224746644496918, -0.19801251590251923, -0.016234174370765686, 0.0718953013420105, -0.09187984466552734, -0.10443305224180222, 0.03430192545056343, -0.11055649816989899, -0.03213838115334511, 0.21546760201454163, -0.077232226729393, -0.09244243055582047, -0.24577124416828156, 0.01224838849157095, -0.004875447601079941, 0.14060313999652863, -0.025564005598425865], [-0.11686596274375916, -0.1526426523923874, -0.176438570022583, -0.009603057987987995, 0.16319623589515686, -0.034929972141981125, 0.18474052846431732, 0.10029935091733932, -0.11312398314476013, -0.10504854470491409, 0.05108961835503578, 0.03782618045806885, 0.12347635626792908, 0.19960786402225494, 0.05003811791539192, 0.20537088811397552, 0.17849372327327728, -0.006669442169368267, 0.15953955054283142, 0.22704163193702698, 0.30697667598724365, -0.26651981472969055, -0.006133729591965675, 0.02669968269765377, 0.10540063679218292, 0.12020358443260193, 0.051357921212911606, -0.08432731032371521, 0.05651652440428734, 0.13550300896167755, 0.12545153498649597, -0.17006920278072357, 0.2322535365819931, 0.09377442300319672, -0.24254457652568817, 0.09717859327793121, 0.12849047780036926, 0.01937776803970337, -0.16899318993091583, -0.07680758088827133, 0.13854525983333588, 0.041172124445438385, -0.03500807657837868, 0.24748466908931732, 0.18068599700927734, -0.05943349376320839, 0.14916831254959106, 0.09338691085577011, 0.20549066364765167, -0.11347069591283798, -0.2831663191318512, 0.06800679117441177, -0.20519056916236877, 0.18421880900859833, 0.1598622351884842, -0.08641321212053299, -0.12764516472816467, 0.021478237584233284, -0.15843743085861206, 0.09016968309879303, 0.20394140481948853, -0.052279744297266006, 0.1695907860994339, -0.1212879866361618], [0.0827401801943779, -0.12880609929561615, 0.053675610572099686, 0.03223777934908867, -0.16337797045707703, 0.004817730747163296, -0.04771836847066879, 0.03135625645518303, -0.14448624849319458, 0.2664562463760376, 0.09972959756851196, 0.24921783804893494, 0.08672239631414413, -0.2114233523607254, 0.20689134299755096, 0.02080465666949749, -0.23020274937152863, 0.08271206170320511, 0.07656548917293549, 0.021846171468496323, -0.08151226490736008, -0.07751409709453583, 0.135997474193573, 0.21515041589736938, 0.04618382081389427, -0.16944709420204163, 0.23571686446666718, 0.014901366084814072, -0.0874246284365654, -0.12889336049556732, 0.25891661643981934, 0.27092665433883667, 0.10401694476604462, -0.08115663379430771, -0.09558483958244324, -0.22694805264472961, -0.0051585654728114605, -0.11178772896528244, 0.20222002267837524, 0.06920064985752106, 0.07734005153179169, 0.08762945234775543, -0.0053542242385447025, -0.1279378980398178, -0.2819069027900696, 0.1982521414756775, 0.0321430079638958, -0.1386871337890625, 0.22317606210708618, 0.08108104765415192, -0.09564988315105438, -0.08115603774785995, 0.05694038048386574, -0.038780082017183304, -0.00999471452087164, 0.03186245262622833, 0.2892390191555023, -0.14376559853553772, 0.2210121899843216, -0.18535573780536652, 0.11405294388532639, -0.3131641149520874, -0.28091657161712646, -0.01677507720887661], [-0.19574521481990814, 0.44478800892829895, 0.10535941272974014, -0.003181535517796874, -0.19600918889045715, 0.19024184346199036, 0.01780550181865692, 0.030412258580327034, -0.2619955539703369, -0.005709788296371698, -0.020491372793912888, 0.14190798997879028, 0.07412472367286682, -0.02457873523235321, -0.22799734771251678, -0.15258321166038513, -0.11399533599615097, -0.03644649684429169, -0.10880541801452637, 0.22460263967514038, 0.028615931048989296, 0.19672304391860962, -0.05816607177257538, -0.3036295473575592, -0.295843243598938, -0.17657768726348877, 0.07887645065784454, 0.1782919317483902, -0.022482147440314293, -0.13888944685459137, -0.38664883375167847, -0.05262211337685585, -0.0597163550555706, 0.015982458367943764, -0.4275343716144562, -0.0023269506637007, 0.06360350549221039, 0.14302149415016174, 0.07845097035169601, -0.1999015510082245, 0.1998331993818283, -0.0357927568256855, 0.038325235247612, 0.258543998003006, 0.04888947308063507, 0.11921852827072144, 0.17602944374084473, 0.0943121463060379, 0.035855766385793686, 0.09541480243206024, 0.0722060576081276, -0.1271541714668274, -0.13958925008773804, -0.10946597903966904, 0.09542862325906754, 0.09512514621019363, -0.12361177802085876, -0.03657946735620499, -0.25840362906455994, 0.0012638469925150275, -0.29149144887924194, 0.07356566190719604, -0.15145854651927948, 0.1549813449382782], [0.008513366803526878, -0.03549642488360405, 0.03683066368103027, 0.1433102786540985, 0.06997888535261154, 0.42270123958587646, -0.0029665357433259487, -0.011214730329811573, 0.03649088367819786, -0.15357069671154022, -0.2657284736633301, -0.04207102581858635, -0.03006621263921261, 0.046459637582302094, 0.3378368020057678, -0.015512079931795597, -0.13487793505191803, -0.047194626182317734, -0.14857421815395355, 0.14926734566688538, 0.18148797750473022, 0.02827424369752407, 0.16866238415241241, 0.21962985396385193, -0.09083929657936096, 0.015601655468344688, -0.06461984664201736, 0.16566787660121918, 0.15147928893566132, -0.1801716387271881, 0.014499567449092865, -0.15736648440361023, 0.10438579320907593, -0.13447773456573486, -0.18180504441261292, -0.21060499548912048, 0.09343857318162918, -0.02393260970711708, 0.08831425756216049, 0.0628797709941864, 0.17718440294265747, 0.06779284030199051, -0.11157426983118057, 0.08339229226112366, 0.3375801742076874, -0.09880372881889343, 0.07890450209379196, 0.22581267356872559, 0.004238583613187075, 0.10225238651037216, -0.07914269715547562, -0.037942394614219666, 0.01666657067835331, 0.009640240110456944, -0.020274950191378593, 0.002705642022192478, 0.05506836250424385, -0.17509861290454865, 0.12461189180612564, 0.13373763859272003, 0.30755794048309326, -0.195278137922287, -0.33900511264801025, -0.24002647399902344], [-0.04399719834327698, 0.07400299608707428, -0.07522200793027878, 0.16087660193443298, -0.19794316589832306, -0.013791786506772041, 0.04539638012647629, 0.08107698708772659, 0.08541493862867355, -0.07953210920095444, -0.21758781373500824, -0.08165161311626434, 0.05113096907734871, -0.029906466603279114, -0.029491741210222244, -0.018712550401687622, 0.01792612113058567, -0.33474451303482056, 0.1331118494272232, -0.008012236095964909, 0.0666176900267601, 0.08772718906402588, -0.12859134376049042, -0.08114881068468094, -0.0995834544301033, 0.18106171488761902, 0.24564222991466522, -0.1878274530172348, -0.24622829258441925, -0.005818413570523262, 0.0011087360326200724, -0.032798945903778076, 0.2270062267780304, -0.054470669478178024, 0.12969250977039337, 0.1828639805316925, 0.13986684381961823, 0.0455973781645298, 0.0037398645654320717, 0.013104552403092384, 0.2777995467185974, 0.1285495162010193, 0.21434010565280914, -0.07744647562503815, -0.1946323812007904, -0.09715213626623154, 0.06771023571491241, -0.22511132061481476, -0.06294747442007065, 0.11729880422353745, 0.020473433658480644, 0.034851133823394775, 0.10032325983047485, -0.1719973385334015, -0.06339175254106522, -0.07050749659538269, -0.10758396238088608, 0.12231697142124176, -0.06445048749446869, 0.1330927610397339, -0.18300996720790863, -0.042057257145643234, 0.027357028797268867, -0.06370148807764053], [0.009716138243675232, 0.08492815494537354, 0.11504872143268585, 0.007587033789604902, 0.06160784512758255, 0.0816924199461937, 0.29033714532852173, -0.15584175288677216, 0.03623524308204651, 0.05943545699119568, 0.11784262955188751, 0.1689482033252716, -0.001822930877096951, 0.1541648805141449, 0.14569194614887238, -0.017566245049238205, -0.041489362716674805, 0.03512822091579437, 0.0067860339768230915, 0.05415261909365654, -0.030975250527262688, -0.0003337438392918557, -0.10804563760757446, 0.19527249038219452, 0.022922333329916, -0.058533862233161926, -0.003187978407368064, 0.37228575348854065, 0.06108301877975464, 0.16766193509101868, 0.01187564805150032, -0.01812426559627056, 0.08001826703548431, 0.03155846893787384, 0.034435346722602844, -0.2621086537837982, 0.3224122226238251, 0.1049908697605133, 0.14945881068706512, -0.06622941792011261, 0.09926968067884445, 0.22508487105369568, 0.16372759640216827, 0.4265912175178528, -0.08926334977149963, -0.20119841396808624, 0.07161466777324677, 0.10307884216308594, 0.0012425156310200691, 0.03947601467370987, 0.015683762729167938, -0.13278351724147797, 0.13275639712810516, -0.11167066544294357, 0.22694796323776245, 0.0074171945452690125, 0.013215981423854828, -0.18909481167793274, -0.10322290658950806, -0.007586374878883362, 0.017100106924772263, -0.22017860412597656, 0.041689518839120865, 0.2262837141752243], [-0.19886250793933868, 0.2784336805343628, 0.01944509707391262, -0.2139890193939209, -0.1764533966779709, 0.006715796887874603, -0.2068661004304886, 0.12867730855941772, -0.2161540985107422, -0.0029536173678934574, 0.04142959788441658, 0.16765129566192627, 0.005469308700412512, -0.231170654296875, -0.02271246910095215, -0.07614041119813919, -0.13114924728870392, -0.2677764296531677, 0.10352533310651779, 0.034825921058654785, 0.1759091466665268, 0.15332284569740295, 0.18305544555187225, -0.031147891655564308, 0.04082849621772766, -0.23770937323570251, 0.055714599788188934, -0.09869056195020676, 0.10456526279449463, -0.03465815261006355, -0.07031619548797607, -0.1414499580860138, -0.1542128175497055, 0.17727644741535187, 0.44628795981407166, -0.14604099094867706, -0.1343757063150406, -0.09674029052257538, -0.12448230385780334, 0.09537480771541595, 0.1327614039182663, -0.005888259969651699, -0.028814207762479782, -0.1888999491930008, -0.15099681913852692, 0.05787661299109459, -0.36025765538215637, 0.0988045185804367, -0.10453054308891296, 0.011951948516070843, -0.11849092692136765, -0.0905282273888588, -0.15211708843708038, 0.22898896038532257, 0.12351471930742264, 0.1633909046649933, 0.22578321397304535, -0.1734163463115692, -0.059834934771060944, -0.23962175846099854, 0.11475968360900879, 0.08706463128328323, -0.20814843475818634, -0.025998204946517944], [-0.0702756717801094, 0.06352642178535461, 0.1613490879535675, 0.07125387340784073, -0.01736525446176529, 0.0582691989839077, -0.11321005970239639, -0.02602505311369896, -0.3311401307582855, 0.05011724308133125, -0.04739687964320183, 0.18978536128997803, -0.2724979519844055, 0.10281079262495041, -0.23818446695804596, -0.04331317916512489, 0.03499715030193329, 0.12498127669095993, 0.07556860893964767, 0.019863231107592583, 0.1169763058423996, -0.01831127144396305, 0.07327921688556671, 0.1288335919380188, 0.1579475849866867, -0.028532350435853004, 0.056399378925561905, 0.007714651525020599, -0.31503546237945557, -0.09261048585176468, 0.08811720460653305, 0.035016488283872604, -0.14076870679855347, -0.0842883437871933, 0.16030283272266388, -0.13806211948394775, 0.11015810072422028, 0.034180816262960434, 0.16849620640277863, 0.05411843955516815, -0.06872402131557465, 0.10161442309617996, -0.07058937102556229, 0.026604926213622093, -0.10666877031326294, -0.09246043115854263, 0.16504201292991638, 0.03531378135085106, 0.154894158244133, -0.08278612792491913, 0.03832906857132912, -0.16853657364845276, 0.025189122185111046, 0.049454569816589355, -0.13129019737243652, 0.38218316435813904, 0.04665657877922058, -0.3378291428089142, 0.20800109207630157, -0.29188042879104614, 0.011994974687695503, 0.40589651465415955, 0.0696437880396843, -0.18096189200878143], [0.0015889107016846538, -0.10092337429523468, 0.011930294334888458, 0.004147047642618418, -0.2322199046611786, 0.11212556809186935, 0.15705950558185577, 0.08618588000535965, 0.26119062304496765, -0.12151510268449783, 0.05704115703701973, -0.14795804023742676, -0.06182914227247238, -0.044237490743398666, 0.02347509190440178, -0.05172114446759224, 0.08388588577508926, -0.18821969628334045, -0.11758347600698471, -0.2940760850906372, -0.20637869834899902, -0.19552551209926605, -0.0071917325258255005, 0.06056628376245499, 0.06742049753665924, 0.22059261798858643, 0.09139814227819443, 0.0189830232411623, 0.04310490936040878, 0.12633022665977478, 0.0014113381039351225, -0.13068106770515442, 0.18565301597118378, -0.1370314657688141, 0.21208785474300385, 0.24833780527114868, -0.09013120830059052, 0.10999608039855957, 0.028371604159474373, -0.07197843492031097, -0.14458250999450684, 0.09848806262016296, 0.0013561575906351209, -0.027465639635920525, 0.0913010761141777, -0.09574433416128159, 0.22134461998939514, -0.008036055602133274, -0.10795183479785919, 0.0668129175901413, -0.27051225304603577, -0.12708860635757446, 0.10136871039867401, -0.06322228163480759, 0.2723402976989746, 0.10592424124479294, -0.08837760239839554, -0.033911317586898804, 0.1551567167043686, 0.04016038402915001, -0.07789185643196106, 0.06666471064090729, -0.11780166625976562, 0.09756116569042206], [-0.17584149539470673, 0.1825224906206131, 0.19745180010795593, 0.12057026475667953, -0.07379569858312607, 0.03862103447318077, 0.14276032149791718, 0.20281831920146942, -0.05503439903259277, 0.07604599744081497, 0.046265676617622375, -0.0740264430642128, 0.0746765211224556, -0.28800955414772034, -0.15774224698543549, -0.04580557346343994, -0.1483253538608551, -0.038866788148880005, -0.04450297728180885, -0.024520130828022957, -0.21566227078437805, 0.05738968402147293, 0.13045759499073029, 0.04989981651306152, 0.16098546981811523, -0.1773272305727005, 0.04967296123504639, -0.1035846620798111, 0.2567945122718811, -0.13931751251220703, -0.12740328907966614, 0.12099070847034454, 0.0057652671821415424, 0.13773518800735474, 0.10646889358758926, 0.07785684615373611, -0.1573740839958191, 0.12628619372844696, -0.2047511637210846, -0.04188084602355957, -0.0005493727512657642, -0.04016031324863434, 0.004494598135352135, 0.14357109367847443, 0.04039065167307854, 0.15776348114013672, -0.00349906412884593, 0.12299288064241409, 0.08107113838195801, 0.052813395857810974, 0.20863935351371765, 0.029431508854031563, -0.09626397490501404, 0.11642477661371231, 0.18112048506736755, 0.09190728515386581, -0.49270114302635193, -0.07299700379371643, -0.09086249768733978, -0.13958512246608734, -0.019143857061862946, -0.02360454760491848, -0.2600778043270111, 0.013092226348817348], [0.059002671390771866, -0.09143583476543427, 0.047901351004838943, -0.15016533434391022, 0.2297162264585495, -0.1389985829591751, -0.13019202649593353, 0.07461263984441757, 0.08358314633369446, 0.037630345672369, 0.176461324095726, -0.1965441256761551, 0.13629485666751862, 0.06190156564116478, -0.14553608000278473, -0.17176613211631775, 0.10281193256378174, -0.020094551146030426, 0.0347471609711647, 0.16940544545650482, 0.12949059903621674, -0.16571661829948425, -0.0710628479719162, -0.06663434952497482, 0.2321394830942154, -0.025502517819404602, 0.3352578282356262, -0.1724502444267273, 0.1454186588525772, -0.005429814103990793, -0.1379675418138504, -0.29006364941596985, 0.12264672666788101, 0.10995688289403915, -0.07646000385284424, -0.2367035150527954, -0.052349381148815155, 0.25324103236198425, 0.024427104741334915, 0.17819932103157043, -0.19875319302082062, 0.05346888303756714, -0.08839650452136993, 0.30179888010025024, 0.0759880542755127, 0.07296199351549149, -0.022419031709432602, -0.02965143322944641, 0.16902604699134827, 0.06206469610333443, 0.15349483489990234, 0.0009484296897426248, -0.18449008464813232, 0.0757448822259903, 0.04261305555701256, 0.04413212090730667, 0.1717604249715805, -0.04588905721902847, -0.029524819925427437, -0.09073840081691742, -0.03696534037590027, -0.10339710116386414, -0.09535083174705505, 0.18942852318286896], [0.11085812002420425, 0.13035835325717926, 0.06180132180452347, -0.14371581375598907, -0.006584507878869772, -0.038335490971803665, -0.051031723618507385, -0.00869845598936081, 0.22126154601573944, 0.022863997146487236, 0.0655432641506195, 0.13424159586429596, 0.06432759761810303, 0.022338543087244034, 0.0708136036992073, -0.003156655700877309, 0.13080282509326935, -0.0342947356402874, 0.22723904252052307, 0.1618736833333969, -0.31982460618019104, -0.06246868148446083, 0.1124405562877655, -0.016134008765220642, -0.021660862490534782, -0.1662093997001648, -0.39531460404396057, 0.10538672655820847, -0.05950595811009407, -0.132559671998024, 0.012772015295922756, -0.03953499719500542, 0.20902536809444427, -0.1003815233707428, 0.22986280918121338, 0.0014837085036560893, 0.07449668645858765, -0.017218701541423798, -0.07599496841430664, 0.14784546196460724, 0.07782111316919327, -0.012030295096337795, 0.00199007336050272, -0.020003024488687515, -0.1661902219057083, -0.037248000502586365, 0.03479772433638573, 0.0907704308629036, -0.034241385757923126, 0.0597158819437027, -0.19063211977481842, 0.15625526010990143, -0.09086057543754578, -0.1615583300590515, -0.0761033222079277, -0.10023345798254013, -0.10943306237459183, 0.057150498032569885, -0.05739229544997215, -0.004079938400536776, 0.23937594890594482, -0.058033283799886703, -0.12808038294315338, -0.07142744213342667], [-0.034993063658475876, -0.017398139461874962, 0.10733544081449509, -0.07008011639118195, 0.2841261625289917, -0.03829667717218399, -0.16032105684280396, 0.014277161099016666, -0.014465698972344398, -0.15252961218357086, 0.055709563195705414, 0.09326491504907608, -0.11994420737028122, 0.15964117646217346, 0.026112202554941177, 0.038464874029159546, -0.1667165458202362, 0.013757513836026192, -0.11103042215108871, -0.04057905450463295, -0.1437777727842331, 0.41822972893714905, -0.1975187361240387, 0.11626537144184113, -0.004282154142856598, 0.060824036598205566, 0.04010937735438347, 0.04467771202325821, -0.021038103848695755, -0.013251146301627159, -0.10574755072593689, 0.0015431815991178155, 0.193811297416687, 0.10045832395553589, 0.17523230612277985, 0.03917262330651283, -0.18273963034152985, -0.014800254255533218, -0.099517323076725, 0.306361585855484, 0.1318533718585968, 0.26818814873695374, 0.05340735241770744, 0.12781719863414764, -0.05425172671675682, -0.13126321136951447, 0.22117429971694946, -0.04256404563784599, 0.017770152539014816, 0.09359536319971085, -0.0979406014084816, -0.023711133748292923, -0.08975976705551147, -0.08364953845739365, 0.09404600411653519, 0.032215334475040436, 0.005463066510856152, -0.032110799103975296, -0.07604125142097473, 0.06185145676136017, -0.11692772060632706, 0.09837115556001663, -0.11010519415140152, 0.04787500202655792], [0.02256390079855919, 0.030650757253170013, 0.12356210500001907, -0.3683074414730072, 0.01585431955754757, -0.19860057532787323, -0.22813653945922852, 0.24512819945812225, -0.07294975221157074, -0.19063864648342133, 0.17962373793125153, 0.13956335186958313, 0.1508112996816635, 0.0811728984117508, -0.151332825422287, 0.06273520737886429, -0.11727076023817062, 0.06627512723207474, 0.042684972286224365, -0.06296129524707794, 0.34331467747688293, 0.12744773924350739, -0.018744103610515594, -0.0009082342148758471, 0.20714594423770905, 0.03893076628446579, -0.08790303766727448, -0.08458808064460754, 0.06400369852781296, 0.02201886847615242, 0.2302258163690567, 0.030019620433449745, -0.06115696579217911, -0.23812776803970337, 0.15405194461345673, -0.1564662903547287, -0.22658339142799377, 0.02322295494377613, -0.19909700751304626, -0.01980152353644371, 0.13798679411411285, -0.2595408260822296, 0.06208966299891472, -0.07057537138462067, 0.24978657066822052, -0.07892901450395584, -0.21696539223194122, -0.04207303375005722, -0.04261335730552673, -0.032915785908699036, -0.19652482867240906, 0.20373386144638062, -0.1691107153892517, 0.06459447741508484, -0.031429633498191833, 0.006720812059938908, -0.08488677442073822, -0.04484068602323532, 0.05158350244164467, 0.016800178214907646, -0.049246326088905334, 0.20323175191879272, -0.1355551779270172, -0.05415244400501251], [-0.02179817482829094, 0.21214830875396729, -0.22672948241233826, -0.07872512936592102, 0.06355427205562592, -0.1466154009103775, -0.1972644180059433, 0.2140176147222519, -0.16978982090950012, -0.06659842282533646, -0.29299238324165344, -0.015435878187417984, 0.10811378061771393, 0.024072838947176933, 0.22644785046577454, -0.007143134716898203, 0.1632935106754303, 0.16004233062267303, 0.24045239388942719, 0.31535953283309937, -0.039076004177331924, 0.34396135807037354, 0.16197583079338074, -0.197230264544487, -0.14790873229503632, -0.13784843683242798, 0.05379999056458473, -0.18765544891357422, 0.025133229792118073, 0.027472447603940964, 0.03528573364019394, -0.06557504832744598, -0.10799229145050049, 0.03759372606873512, 0.13847824931144714, -0.09874744713306427, 0.04903788864612579, 0.012303316034376621, -0.15230748057365417, -0.0693347156047821, -0.10832832753658295, -0.08605028688907623, 0.07699592411518097, 0.12594935297966003, -0.14277558028697968, 0.14832518994808197, -0.2911553978919983, 0.026166830211877823, 0.31811368465423584, 0.12069360166788101, 0.06338862329721451, -0.10468892008066177, -0.056462544947862625, 0.059436146169900894, 0.0459398552775383, 0.18247435986995697, 0.07853769510984421, 0.24859416484832764, -0.1266924887895584, 0.223344087600708, -0.06790748983621597, 0.3407851755619049, -0.007547975052148104, 0.2145654559135437], [-0.007555824238806963, -0.057564396411180496, -0.2344256043434143, 0.025516582652926445, -0.056524086743593216, -0.02918137051165104, -0.037762925028800964, -0.3496461510658264, -0.10786648839712143, -0.17385686933994293, -0.20082159340381622, 0.2643030285835266, -0.1046762689948082, -0.13697463274002075, -0.1139703243970871, 0.07835996896028519, 0.0808677077293396, 0.015015272423624992, 0.16184312105178833, -0.1392972618341446, -0.051548972725868225, -0.019225887954235077, 0.040325090289115906, 0.21669045090675354, -0.05426611006259918, -0.11569757014513016, 0.02741200104355812, 0.04558583348989487, 0.12628436088562012, 0.003843751037493348, 0.07378032058477402, -0.0031177259515970945, 0.04086895287036896, -0.09028016030788422, -0.10784118622541428, -0.06785205006599426, 0.024856742471456528, 0.014159467071294785, 0.08612832427024841, -0.01586577109992504, 0.043544359505176544, 0.020869433879852295, -0.05980589985847473, 0.10990090668201447, 0.017922593280673027, 0.12307971715927124, 0.02628949284553528, -0.10858781635761261, -0.12091173231601715, -0.14903219044208527, -0.10150675475597382, 0.07021895796060562, -0.08173244446516037, 0.126417875289917, -0.03993626683950424, 0.032835815101861954, -0.3704812228679657, -0.06605097651481628, 0.15203680098056793, 0.06381592154502869, 0.13624340295791626, -0.2180052250623703, -0.0054961638525128365, 0.10759829729795456], [-0.15153531730175018, 0.0066434661857783794, 0.11922254413366318, -0.19708400964736938, 0.06722824275493622, -0.12804439663887024, 0.15825378894805908, 0.06654220819473267, -0.07173825800418854, -0.011867610737681389, 0.015641221776604652, 0.0912330150604248, 0.04433033615350723, 0.17230255901813507, 0.010405298322439194, 0.0034632172901183367, 0.13986732065677643, 0.05044638738036156, -0.09707985818386078, 0.02839178778231144, -0.0017071274342015386, -0.006444884464144707, -0.2752552628517151, -0.01680649071931839, 0.06329365819692612, -0.08898637443780899, 0.11737948656082153, -0.09915995597839355, -0.09114541113376617, 0.24861963093280792, -0.1384664624929428, -0.20113858580589294, -0.19001467525959015, -0.42526981234550476, -0.06547720730304718, -0.14810626208782196, 0.1933974027633667, -0.14703164994716644, -0.11037033051252365, 0.2178424596786499, -0.07707852870225906, -0.11164248734712601, 0.003455817000940442, 0.052545636892318726, -0.14078748226165771, -0.014368830248713493, 0.19955378770828247, -0.06329436600208282, 0.027522657066583633, 0.05429834872484207, 0.01244267262518406, 0.09123635292053223, -0.0066356114111840725, -0.16963383555412292, 0.20246776938438416, -0.0583224818110466, 0.03747625648975372, -0.14521807432174683, -0.10037732869386673, 0.21995699405670166, 0.04565674066543579, -0.05568018555641174, -0.027370724827051163, -0.0465487539768219], [-0.11282970011234283, -0.08710535615682602, 0.11891812831163406, -0.020738566294312477, -0.026167524978518486, 0.035083506256341934, 0.1459500789642334, 0.07647113502025604, 0.10719093680381775, 0.029016198590397835, 0.041127681732177734, 0.025029504671692848, 0.03099070116877556, -0.07165227085351944, -0.024071406573057175, -0.11485631763935089, -0.008850695565342903, -0.15424242615699768, -0.16248773038387299, -0.16928400099277496, -0.012003719806671143, 0.0774187222123146, 0.23906421661376953, 0.1261131912469864, 0.009455885738134384, 0.09701114147901535, -0.10492728650569916, -0.034712519496679306, 0.18505889177322388, 0.047814562916755676, 0.17372927069664001, -0.011289681307971478, -0.07817310839891434, 0.15658584237098694, -0.20099247992038727, -0.13425931334495544, 0.1902555674314499, -0.10834112763404846, 0.03016701713204384, 0.0904887244105339, 0.0410175584256649, -0.06887805461883545, 0.16861313581466675, -0.03287816792726517, 0.053658418357372284, -0.3111923635005951, 0.18523547053337097, -0.15758533775806427, -0.024122586473822594, -0.2723256051540375, -0.04410719871520996, 0.24064676463603973, 0.055724188685417175, 0.1647011935710907, 0.06751836091279984, -0.3004855215549469, -0.14897125959396362, -0.245687797665596, -0.06399166584014893, 0.04024404287338257, -0.2068265825510025, 0.2799284756183624, 0.16983731091022491, 0.0818471908569336], [0.055665116757154465, 0.021472739055752754, 0.1457456648349762, 0.1369079202413559, -0.1944396048784256, 0.07641177624464035, 0.11593298614025116, -0.14457564055919647, -0.26079291105270386, 0.12400145828723907, -0.05564292520284653, 0.029460765421390533, -0.1970241814851761, -0.09098035097122192, -0.1970638930797577, 0.001112380065023899, -0.26626408100128174, 0.08266319334506989, -0.06395149230957031, -0.005159163847565651, -0.03724740818142891, 0.23329712450504303, -0.18083319067955017, -0.06078692898154259, -0.19830189645290375, 0.08974603563547134, 0.092252217233181, -0.13593366742134094, -0.1282961368560791, -0.08033544570207596, -0.1761004477739334, -0.028367269784212112, 0.06057371571660042, -0.07248250395059586, 0.13412930071353912, 0.02395632117986679, -0.019043289124965668, -0.019776124507188797, -0.23319636285305023, -0.022029589861631393, 0.15537700057029724, 0.20387907326221466, 0.10143928229808807, -0.17106184363365173, -0.016279783099889755, -0.1427917182445526, -0.13227681815624237, 0.13532888889312744, -0.060128454118967056, -0.002523723291233182, 0.055688295513391495, 0.06317666172981262, -0.09344636648893356, -0.19828037917613983, -0.05095268413424492, -0.2933065593242645, -0.14683853089809418, -0.013203245587646961, -0.018288351595401764, -0.2602587640285492, -0.12073113024234772, 0.11231371015310287, 0.021517224609851837, -0.13028068840503693], [0.09946876764297485, 0.30137762427330017, 0.004378017038106918, 0.25669464468955994, -0.2289959192276001, -0.06601034104824066, -0.08343019336462021, 0.046286679804325104, 0.01726500876247883, 0.08417064696550369, -0.14125458896160126, 0.11516830325126648, -0.18832439184188843, -0.17540861666202545, -0.1212095096707344, 0.06278407573699951, 0.19381774961948395, -0.22999706864356995, -0.11826787143945694, 0.034883104264736176, -0.04233050346374512, -0.11464361101388931, -0.3257715702056885, 0.14434875547885895, 0.1409095823764801, -0.3220139741897583, -0.22122643887996674, 0.04367942363023758, 0.019425218924880028, -0.011229436844587326, -0.006622151471674442, -0.06741296499967575, -0.11041717231273651, 0.014489051885902882, 0.014410880394279957, -0.041320838034152985, 0.10586059093475342, 0.018449285998940468, 0.2184954136610031, 0.16931045055389404, 0.0958007276058197, 0.14304523169994354, -0.22808672487735748, -0.16940845549106598, -0.0685955211520195, 0.1317053735256195, -0.07971681654453278, 0.14595098793506622, 0.025374075397849083, -0.06473306566476822, -0.12911538779735565, 0.3196765184402466, 0.045664917677640915, -0.19988027215003967, 0.2122473418712616, 0.22601933777332306, 0.006940482184290886, -0.31648117303848267, 0.15209655463695526, 0.02147730067372322, 0.15286007523536682, -0.047186046838760376, -0.17314134538173676, -0.0013419424649327993], [-0.030568927526474, -0.1151687353849411, 0.05348796397447586, 0.20397332310676575, 0.019132547080516815, 0.08504536747932434, -0.08880103379487991, 0.15367966890335083, -0.20031775534152985, 0.12600308656692505, 0.23141536116600037, -0.04748335853219032, -0.015429839491844177, 0.09411343932151794, 0.025769587606191635, 0.024341624230146408, 0.02144995704293251, -0.13134825229644775, 0.09766144305467606, -0.04517718777060509, 0.10922130942344666, -0.05128686502575874, -0.1765579730272293, -0.09712715446949005, 0.22821596264839172, -0.059754323214292526, 0.1327400654554367, 0.03486955910921097, -0.08366360515356064, 0.056634265929460526, 0.03851782903075218, 0.2396329939365387, 0.14561237394809723, -0.08973556756973267, -0.2256035953760147, 0.04697619006037712, 0.23837755620479584, -0.004462132230401039, 0.0713968425989151, -0.09807644039392471, 0.1427060216665268, -0.005830461159348488, -0.056991737335920334, -0.06155652552843094, -0.10345600545406342, 0.04584891349077225, -0.12522819638252258, -0.09149593114852905, 0.08693858236074448, -0.16511397063732147, -0.1344226896762848, 0.327971488237381, -0.04196762666106224, 0.20212852954864502, 0.06060772016644478, -0.0700758844614029, -0.1224139928817749, -0.14319536089897156, 0.17437583208084106, 0.07598110288381577, -0.04930855333805084, 0.024866042658686638, 0.1623004823923111, -0.11613334715366364], [-0.2111831158399582, -0.07444306463003159, -0.1792164444923401, 0.12175852060317993, 0.020945945754647255, 0.0648019090294838, -0.06141546741127968, -0.114214688539505, 0.14470234513282776, 0.02173926867544651, 0.08176890760660172, 0.01628458872437477, -0.13490651547908783, 0.2070721685886383, -0.0759509727358818, -0.12382999062538147, 0.13832128047943115, -0.13260877132415771, -0.03692042455077171, -0.06502684950828552, 0.0747184008359909, 0.020671240985393524, 0.03066987916827202, 0.13012875616550446, 0.11292288452386856, -0.1435517966747284, 0.2668841481208801, -0.1676902323961258, 0.0762476921081543, -0.10275008529424667, 0.26900526881217957, -0.11349716037511826, 0.04596376791596413, -0.16165660321712494, 0.10435917973518372, -0.2548736333847046, 0.04648709297180176, -0.05230133980512619, 0.24439524114131927, -0.25865504145622253, 0.1239604651927948, 0.016991719603538513, -0.14922016859054565, -0.08769574016332626, 0.0898842141032219, -0.12521429359912872, -0.11740214377641678, 0.025865165516734123, 0.1733247935771942, 0.006947277579456568, 0.14596709609031677, 0.010276752524077892, 0.004848705139011145, -0.21547739207744598, 0.199946328997612, -0.15147815644741058, -0.06744810193777084, 0.11615945398807526, 0.17691026628017426, 0.01533033698797226, 0.05203983187675476, 0.147984579205513, -0.08976652473211288, 0.13135705888271332], [-0.1274975687265396, -0.08886905014514923, 0.019914299249649048, 0.0752621591091156, 0.03816630691289902, -0.26559171080589294, 0.2431960552930832, 0.10238949209451675, -0.05976635217666626, -0.0813162624835968, -0.12190033495426178, 0.1252090185880661, -0.07594393193721771, -0.0882999449968338, -0.26606446504592896, -0.006237938068807125, -0.14022545516490936, 0.03931707888841629, -0.14495815336704254, -0.03105580061674118, 0.1368592530488968, -0.11619235575199127, 0.05158728361129761, -0.006261304020881653, -0.3872585892677307, 0.06373860687017441, -0.0065962630324065685, 0.011674472130835056, 0.09671688824892044, 0.17298996448516846, -0.023703550919890404, 0.11587265133857727, 0.0028380814474076033, 0.10336016118526459, 0.16710682213306427, -0.04970034211874008, -0.08203253149986267, -0.01261808816343546, 0.1764579564332962, 0.2061917632818222, -0.01628304086625576, -0.14029882848262787, 0.03965501859784126, -0.16216740012168884, 0.07754173129796982, -0.07761996984481812, -0.11778392642736435, 0.2142140418291092, -0.08257823437452316, -0.1429969221353531, 0.09257585555315018, -0.048620667308568954, -0.27401766180992126, 0.15802091360092163, -0.09404457360506058, 0.09550198167562485, -0.06774625927209854, -0.008586964569985867, -0.19370421767234802, 0.03224166855216026, -0.1943228393793106, 0.00986572541296482, -0.04136379808187485, -0.06950804591178894], [-0.07553011924028397, 0.03829653188586235, 0.1687231808900833, 0.23492810130119324, -0.13225656747817993, -0.1318550854921341, 0.24276770651340485, 0.12268948554992676, -0.25960007309913635, -0.06524472683668137, -0.09302934259176254, 0.09882692247629166, 0.12015023827552795, -0.13750286400318146, -0.1452365666627884, 0.01603374443948269, -0.020939238369464874, 0.06214816868305206, -0.0436025932431221, -0.09484770148992538, 0.47990936040878296, -0.12465354800224304, -0.12794019281864166, 0.020707938820123672, 0.023747814819216728, 0.0013288118643686175, 0.025949331000447273, 0.04514942318201065, 0.03328138217329979, 0.025171993300318718, -0.03576316311955452, 0.11871186643838882, -0.07857230305671692, -0.08860364556312561, 0.011422396637499332, -0.10673384368419647, -0.049200739711523056, -0.0694083496928215, -0.07843422144651413, -0.036096952855587006, 0.18743973970413208, 0.06098095700144768, 0.16728852689266205, -0.28105804324150085, -0.2256878912448883, -0.0067478688433766365, 0.28867626190185547, 0.08464179188013077, -0.10721105337142944, 0.2065393477678299, -0.157048761844635, -0.2778727114200592, 0.16109971702098846, -0.02792597934603691, 0.06401154398918152, 0.029471000656485558, -0.1185014620423317, -0.1464211791753769, -0.07978260517120361, -0.2407459020614624, -0.16530591249465942, -0.06255265325307846, 0.0543103851377964, 0.019469667226076126], [0.062155790627002716, 0.05576946213841438, 0.06558004766702652, 0.12053694576025009, 0.015138587914407253, -0.08462496846914291, -0.06021205708384514, 0.0794936791062355, 0.07057370990514755, -0.009182555601000786, -0.0504293255507946, -0.010798262432217598, 0.013006094843149185, 0.18254195153713226, 0.08439920097589493, -0.1504988819360733, -0.10295099020004272, -0.04459609463810921, -0.039472922682762146, 0.06598296016454697, 0.030490873381495476, 0.2693985104560852, 0.04990870878100395, -0.11959473043680191, -0.09316530078649521, 0.08217243105173111, -0.08953772485256195, -0.16337035596370697, -0.008682661689817905, -0.09529957175254822, -0.09832948446273804, 0.024348391219973564, 0.028145337477326393, -0.005828067194670439, -0.14898869395256042, 0.1320810616016388, 0.07878957688808441, 0.1516674906015396, 0.058260977268218994, 0.0298103466629982, -0.059515632688999176, 0.056111957877874374, -0.27821600437164307, -0.26969730854034424, 0.09922195971012115, 0.14274156093597412, -0.01781011000275612, 0.03927641361951828, 0.1802361160516739, 0.16564598679542542, -0.1308746337890625, 0.27818337082862854, -0.0855650007724762, 0.004845143761485815, 0.18406952917575836, -0.0001511523878434673, -0.019860820844769478, -0.15022173523902893, 0.19530028104782104, -0.06402178853750229, 0.14780233800411224, 0.11604944616556168, 0.006887331139296293, -0.1383342295885086], [0.005065975710749626, 0.21967759728431702, -0.14239360392093658, -0.074433833360672, 0.26754990220069885, 0.041948702186346054, -0.1709660142660141, 0.05568535998463631, -0.1758761703968048, 0.15780015289783478, 0.026846222579479218, 0.2852191627025604, 0.05321243777871132, 0.01619218848645687, 0.06787940114736557, -0.01743464544415474, 0.16177842020988464, -0.08768246322870255, 0.17655926942825317, 0.1875401735305786, -0.03535612300038338, 0.34051138162612915, 0.18281833827495575, -0.06386870890855789, -0.169594407081604, 0.12949153780937195, -0.1633671522140503, 0.15502029657363892, 0.1365240514278412, 0.020862175151705742, 0.04567922651767731, 0.07837196439504623, -0.016761114820837975, -0.05830356478691101, 0.12756036221981049, -0.026077765971422195, -0.05934930220246315, -0.023015808314085007, 0.11061353236436844, 0.012886681593954563, -0.035400524735450745, -0.147126704454422, 0.07333383709192276, 0.08965003490447998, 0.03875773027539253, 0.0005194180412217975, -0.02403661049902439, 0.14071090519428253, 0.06776628643274307, 0.056557655334472656, -0.03942171484231949, 0.06332755088806152, 0.09306127578020096, 0.06192857027053833, 0.2507972717285156, -0.08836717158555984, -0.1664915829896927, -0.1736263483762741, -0.2118324339389801, 0.14699696004390717, 0.11523067206144333, 0.1310422420501709, -0.07442612200975418, -0.16741955280303955], [-0.001339147798717022, -0.2437046766281128, -0.08292310684919357, -0.1944955289363861, 0.2315862625837326, 0.2006850391626358, -0.09415290504693985, 0.10852378606796265, -0.011774197220802307, 0.057269077748060226, -0.18796752393245697, -0.012320263311266899, 0.15848617255687714, -0.20443031191825867, 0.006500212009996176, -0.24878977239131927, 0.022579975426197052, -0.07202434539794922, 0.2257571667432785, -0.14291544258594513, -0.006076260469853878, 0.2003418207168579, 0.1198483482003212, 0.1948225349187851, -0.154426708817482, 0.057340189814567566, 0.0475657619535923, 0.08374617993831635, 0.030693452805280685, -0.04841851815581322, 0.12923333048820496, -0.2056080549955368, 0.16675464808940887, 0.05200349912047386, 0.20827585458755493, -0.09206769615411758, -0.013185127638280392, 0.12627772986888885, -0.3671707808971405, -0.10928669571876526, 0.05512145534157753, -0.02902679331600666, -0.15771876275539398, -0.09683386981487274, -0.06172521412372589, 0.05994755029678345, -0.0027609120588749647, 0.00093134178314358, 0.101944200694561, 0.07032586634159088, -0.024091064929962158, 0.13678742945194244, 0.11383164674043655, -0.274386465549469, 0.22367805242538452, -0.10350501537322998, 0.2847519516944885, -0.17012162506580353, 0.0376439243555069, 0.22617220878601074, -0.03608695790171623, -0.033143993467092514, 0.16808868944644928, 0.09234542399644852], [-0.27674296498298645, 0.13472899794578552, -0.04190773889422417, -0.02379913441836834, 0.04281659051775932, -0.16626513004302979, -0.09275993704795837, 0.011480243876576424, 0.0140067795291543, 0.025408955290913582, -0.18657717108726501, 0.08608986437320709, -0.04601214453577995, 0.1432214379310608, 0.15753860771656036, 0.2673876881599426, 0.14267903566360474, -0.029418734833598137, -0.21368083357810974, 0.10655831545591354, -0.15557566285133362, -0.010939942672848701, 0.16083499789237976, 0.16756829619407654, -0.19558461010456085, -0.10418102145195007, -0.014132133685052395, 0.06638003140687943, 0.08936550468206406, -0.3298627436161041, 0.11061912775039673, -0.05571209639310837, 0.1317715346813202, -0.18562786281108856, 0.13842515647411346, -0.07734125852584839, -0.11588812619447708, -0.011182643473148346, -0.14037010073661804, -0.044007476419210434, 0.07304906100034714, -0.17602400481700897, -0.045102886855602264, -0.11889487504959106, -0.15623676776885986, 0.11680729687213898, -0.37870246171951294, -0.08445098996162415, 0.04680589213967323, 0.08273936063051224, 0.01868961751461029, -0.029237516224384308, -0.09166837483644485, -0.045135848224163055, 0.01622106321156025, 0.16103634238243103, -0.1628410518169403, -0.3319517970085144, 0.08827831596136093, -0.05117040127515793, 0.08622653037309647, 0.1216573566198349, 0.18995684385299683, 0.17349039018154144], [0.0160475242882967, -0.15614908933639526, 0.0935276597738266, 0.040899746119976044, 0.003635549684986472, -0.14221276342868805, -0.2069837898015976, 0.010274958796799183, -0.09921446442604065, -0.17465415596961975, -0.3011959493160248, 0.25272172689437866, -0.2737971544265747, -0.15173718333244324, -0.134535014629364, 0.19262506067752838, 0.10632763057947159, 0.12965534627437592, -0.1741814762353897, 0.2979609966278076, 0.09580183029174805, 0.057529062032699585, 0.007200437597930431, 0.06163564324378967, 0.1072857603430748, 0.06514284014701843, 0.09149093925952911, 0.01405243668705225, -0.03669267147779465, 0.01785103604197502, -0.007068226113915443, -0.09082266688346863, 0.019627921283245087, -0.11277090013027191, 0.10312698781490326, -0.08006320148706436, -0.2498430758714676, -0.01741752028465271, 0.18130351603031158, 0.18516719341278076, 0.11274615675210953, 0.014321662485599518, -0.2297840118408203, -0.043252162635326385, 0.1681903600692749, -0.059326641261577606, -0.0594949908554554, 0.1400051862001419, 0.15089458227157593, 0.01836380548775196, -0.06502890586853027, -0.2153576761484146, 0.12777124345302582, -0.0548211894929409, 0.006469440180808306, 0.05484741926193237, 0.1502031534910202, -0.07783815264701843, -0.00985174160450697, -0.07286533713340759, -0.11770527064800262, 0.03322341665625572, -0.15623731911182404, -0.08736923336982727], [-0.03512835130095482, -0.14261235296726227, 0.07230482250452042, 0.04925857111811638, -0.1896425038576126, -0.1558476984500885, -0.011238389648497105, 0.3441771864891052, 0.009013609029352665, -0.17269663512706757, -0.02899237535893917, 0.047938618808984756, 0.04285842552781105, -0.2105354368686676, -0.013191195204854012, 0.15224136412143707, -0.13705255091190338, -0.018541358411312103, -0.040952347218990326, -0.1583584100008011, -0.079899363219738, 0.03704671189188957, 0.30207327008247375, -0.015483133494853973, -0.16458085179328918, 0.04347969964146614, 0.07306153327226639, 0.11062037944793701, 0.027432706207036972, -0.07134458422660828, -0.19816374778747559, -0.14024017751216888, -0.3763510584831238, -0.04698782041668892, -0.0023441605735570192, -0.04187554121017456, -0.07224272936582565, -0.055095572024583817, 0.16281066834926605, -0.22949835658073425, -0.09301424771547318, -0.14630092680454254, 0.15172071754932404, 0.06611648947000504, -0.11483675986528397, -0.056781698018312454, -0.18845391273498535, -0.3729744851589203, 0.20109590888023376, 0.05286560580134392, 0.10188177973031998, -0.0633765459060669, 0.1483992487192154, -0.1287943720817566, 0.03549531102180481, 0.22901849448680878, 0.19690518081188202, -0.21125687658786774, -0.2225862294435501, 0.06024256348609924, -0.06868008524179459, 0.09625811129808426, 0.04289631173014641, 0.05196663737297058], [-0.16926145553588867, -0.1125158965587616, 0.16407500207424164, 0.0675070509314537, -0.024214794859290123, 0.13755175471305847, 0.22389210760593414, -0.152776300907135, -0.12953010201454163, 0.08717147260904312, -0.05282178521156311, -0.09875492751598358, 0.362047016620636, 0.16304144263267517, -0.23272374272346497, 0.014371860772371292, -0.160525843501091, -0.0071328445337712765, 0.026840534061193466, -0.012510835193097591, -0.10269345343112946, -0.10265291482210159, -0.07740650326013565, -0.035587381571531296, -0.006225000135600567, -0.08861737698316574, 0.08424746990203857, 0.0394287146627903, 0.0934830829501152, -0.07712853699922562, -0.08389809727668762, -0.17249813675880432, 0.10859674960374832, 0.030782191082835197, -0.0354456827044487, -0.2121891975402832, -0.14934875071048737, 0.16749468445777893, -0.5272486209869385, -0.07376804947853088, -0.07804853469133377, -0.10416131466627121, 0.05425376445055008, 0.21033541858196259, 0.03688187897205353, -0.07726667076349258, 0.08568350970745087, 0.05830107629299164, 0.09644873440265656, 0.06445659697055817, 0.1331888884305954, -0.16708919405937195, -0.08652792125940323, -0.033215634524822235, 0.057616252452135086, 0.018645331263542175, -0.09887424856424332, -0.06901846826076508, -0.017474237829446793, -0.0234341062605381, -0.03032878413796425, 0.024975325912237167, 0.018221674486994743, -0.01812085323035717], [0.04166402295231819, 0.23493917286396027, -0.08857979625463486, 0.2510887682437897, 0.00766820227727294, 0.09626400470733643, 0.090749092400074, -0.048979565501213074, -0.05112621560692787, 0.23031996190547943, 0.13613784313201904, -0.09032627195119858, -0.18518081307411194, -0.056120552122592926, -0.2793229818344116, -0.0340849868953228, -0.08472751080989838, 0.009752248413860798, -0.1549922525882721, 0.09618856012821198, 0.16253302991390228, -0.04552304744720459, -0.33154773712158203, 0.2773328125476837, -0.05737096071243286, 0.03850019723176956, 0.17451459169387817, -0.08098529279232025, -0.11563558131456375, -0.008475637063384056, -0.04350344091653824, 0.06116831302642822, -0.24091725051403046, 0.04388146474957466, -0.02748316153883934, -0.04243386164307594, 0.07096794992685318, -0.34199613332748413, -0.002096976153552532, -0.10062938183546066, 0.056222427636384964, 0.2815329134464264, -0.037870489060878754, -0.054225582629442215, -0.06865208595991135, -0.12756691873073578, 0.03187006711959839, -0.18318817019462585, -0.08885393291711807, -0.06677524745464325, -0.07952114939689636, -0.11482764780521393, 0.020965123549103737, -0.09031388908624649, -0.08203369379043579, 0.025562668219208717, 0.05391715466976166, 0.27349284291267395, 0.17899443209171295, 0.1794777512550354, -0.032293651252985, 0.16810111701488495, -0.045627109706401825, 0.20371878147125244], [-0.1271139234304428, 0.06365402787923813, -0.029955144971609116, -0.1244773343205452, 0.01775446906685829, -0.12883785367012024, 0.20449475944042206, -0.1439189463853836, -0.2103380411863327, 0.08112233877182007, 0.08145879209041595, 0.009964514523744583, 0.2252325862646103, 0.0051180049777030945, 0.02658199332654476, -0.10518193989992142, -0.30972567200660706, -0.2551879286766052, -0.1163373738527298, -0.0889134407043457, -0.3334634304046631, 0.08711039274930954, 0.05026128143072128, 0.021830109879374504, 0.018838096410036087, 0.10637986660003662, -0.041959937661886215, -0.007216869853436947, 0.018898846581578255, -0.1441841721534729, -0.3453485369682312, -0.015153691172599792, -0.21573202311992645, 0.025023452937602997, -0.1777791827917099, 0.051156871020793915, -0.059588491916656494, 0.03071041777729988, 0.02452058345079422, -0.046778544783592224, -0.03128906339406967, -0.016778217628598213, 0.04919453710317612, -0.15333712100982666, 0.24648505449295044, -0.0656881332397461, 0.03693266957998276, -0.0925275981426239, -0.015659483149647713, -0.009915269911289215, -0.14407414197921753, 0.026920460164546967, 0.03509825840592384, -0.009301861748099327, -0.08621946722269058, 0.062099676579236984, 0.2534104287624359, -0.08395900577306747, 0.0078430799767375, 0.10858740657567978, -0.11904112994670868, 0.027010923251509666, -0.10892929136753082, -0.30194413661956787], [-0.2026500552892685, 0.16236050426959991, 0.08224271237850189, -0.02392158843576908, 0.20427721738815308, 0.06876618415117264, -0.09653311222791672, -0.16993534564971924, 0.07320407032966614, 0.026538236066699028, 0.2807338237762451, 0.15763859450817108, 0.07888492196798325, -0.06194708123803139, 0.031013861298561096, 0.29399654269218445, 0.13018681108951569, 0.1784432977437973, 0.16182340681552887, -0.1241479441523552, -0.050666820257902145, -0.05338596552610397, -0.19900088012218475, -0.13186797499656677, 0.12617957592010498, 0.038376934826374054, 0.10830996930599213, 0.09124039113521576, 0.28565359115600586, -0.08241961896419525, 0.0998661145567894, 0.28768444061279297, 0.3200754225254059, -0.11164829879999161, -0.17386604845523834, 0.15815559029579163, -0.10233679413795471, -0.05677473172545433, 0.066708505153656, -0.04227949678897858, 0.0016528199193999171, -0.1554325371980667, -0.3542048931121826, -0.2032817304134369, -0.0411900170147419, -0.051073428243398666, -0.07546082139015198, -0.16861316561698914, -0.09377607703208923, 0.016859890893101692, 0.21623706817626953, 0.18520082533359528, 0.16359072923660278, -0.022855158895254135, -0.03942743316292763, -0.1824617087841034, 0.06599007546901703, 0.11225871741771698, -0.021832045167684555, -0.0059240274131298065, 0.15835995972156525, 0.16091158986091614, -0.03755098953843117, 0.03549472987651825], [-0.299905002117157, -0.18308722972869873, -0.3146198093891144, -0.005170763935893774, -0.2131168246269226, 0.18891847133636475, 0.013880503363907337, 0.04265826195478439, 0.012674507685005665, -0.053550541400909424, 0.07538437098264694, 0.11370027810335159, 0.20854970812797546, -0.17844080924987793, 0.07643458992242813, -0.0575273297727108, -0.10082422196865082, 0.07166577875614166, 0.012178562581539154, -0.02612350508570671, -0.10771716386079788, -0.12020809203386307, 0.11327878385782242, 0.03265225514769554, -0.218051016330719, 0.03458349406719208, 0.08154841512441635, -0.08559335023164749, 0.09524725377559662, -0.10615303367376328, -0.1265665590763092, 0.0018015961395576596, 0.05499155446887016, -0.05167941749095917, 0.26060590147972107, -0.17058518528938293, -0.10383234918117523, -0.1057218685746193, -0.13758932054042816, -0.1846524477005005, 0.013551969081163406, 0.11799570173025131, 0.023528635501861572, -0.08022855222225189, -0.020709877833724022, -0.06819846481084824, 0.1578393131494522, 0.058297257870435715, -0.0795593410730362, 0.029097018763422966, 0.055926933884620667, -0.15494698286056519, -0.03633100911974907, 0.23770537972450256, 0.09740984439849854, -0.1597602814435959, -0.020101774483919144, 0.05393237620592117, -0.07109735906124115, 0.05827266350388527, 0.22006884217262268, -0.040435031056404114, -0.17064230144023895, 0.3126828372478485], [-0.06789156049489975, 0.2435011863708496, 0.016255168244242668, 0.11389155685901642, -0.20318211615085602, 0.06214148923754692, -0.07877381145954132, 0.06939993798732758, -0.06448496878147125, 0.30704954266548157, -0.05526203662157059, 0.26556596159935, 0.24775150418281555, 0.09767661988735199, -0.06908132135868073, 0.00511386152356863, 0.07310429215431213, -0.07052665203809738, 0.068430095911026, 0.08672255277633667, 0.04684929549694061, -0.13231666386127472, -0.1692533940076828, -0.09572147578001022, 0.1664789915084839, -0.14349836111068726, 0.00986562855541706, -0.10707563906908035, -0.3831470012664795, -0.053292516618967056, 0.1503666639328003, -0.014966240152716637, 0.1198781356215477, 0.12897144258022308, -0.26689210534095764, 0.01689058355987072, 0.0011430906597524881, -0.1527099758386612, 0.04634222388267517, 0.14605656266212463, 0.26485133171081543, -0.11042993515729904, -0.21904978156089783, -0.020357685163617134, 0.07793643325567245, -0.011205212213099003, -0.11004658043384552, -0.06193080171942711, -0.08888611942529678, 0.19284388422966003, -0.18261177837848663, 0.10726993530988693, -0.3225240111351013, -0.01103433407843113, -0.1461404412984848, -0.0977625623345375, -0.22402997314929962, 0.1747341752052307, 0.04831363260746002, -0.26088759303092957, 0.02737094648182392, 0.24128228425979614, 0.17909236252307892, 0.12231595814228058], [-0.22357594966888428, -0.1212628111243248, -0.06447587162256241, -0.03124285116791725, 0.07778158038854599, -0.21512340009212494, -0.11388231813907623, 0.024058619514107704, -0.18486441671848297, -0.08720988780260086, 0.11458003520965576, 0.19232279062271118, 0.029095154255628586, -0.16441938281059265, -0.13673466444015503, -0.15951155126094818, -0.02321157231926918, -0.18923650681972504, -0.20571430027484894, 0.10340346395969391, -0.008707769215106964, -0.09844865649938583, 0.12576207518577576, -0.010119945742189884, 0.12217111140489578, 0.06003119796514511, -0.049063023179769516, -0.08525371551513672, -0.13566969335079193, -0.060153719037771225, -0.1376093178987503, -0.09097998589277267, 0.008038811385631561, -0.11784906685352325, -0.012286694720387459, 0.00955453235656023, 0.25970959663391113, 0.2259165346622467, 0.03569329157471657, 0.025603940710425377, 0.10383648425340652, 0.09867541491985321, 0.0858650803565979, -0.20644743740558624, -0.1084306389093399, 0.014575173147022724, 0.14675092697143555, -0.24943114817142487, -0.31405961513519287, -0.03266008570790291, -0.13734132051467896, -0.00012942880857735872, 0.07109997421503067, 0.013509315438568592, -0.07688318938016891, 0.258961021900177, -0.1453888714313507, 0.12433718889951706, -0.2608256936073303, 0.13329824805259705, 0.056242138147354126, 0.1683802604675293, 0.12664541602134705, -0.010778351686894894], [0.009443514980375767, 0.006418097298592329, 0.11002033203840256, 0.004877912811934948, 0.1106245294213295, 0.01895618811249733, 0.17704473435878754, 0.1918647289276123, 0.006896008271723986, -0.21486419439315796, 0.08568254858255386, -0.15416637063026428, 0.051649514585733414, -0.05174115672707558, 0.13083605468273163, 0.11763489991426468, -0.0003837065596599132, 0.0024751643650233746, 0.029364362359046936, -0.061443571001291275, 0.08958647400140762, 0.10852450877428055, 0.11449321359395981, -0.0011247833026573062, 0.09971383959054947, -0.05469090864062309, 0.32305988669395447, 0.016894051805138588, -0.16260531544685364, 0.09279599785804749, 0.05169343203306198, -0.008491827175021172, -0.1281624287366867, -0.07208560407161713, 0.2716427445411682, -0.03176402300596237, -0.008246415294706821, -0.17427942156791687, 0.12723679840564728, 0.11881297081708908, 0.11782968044281006, 0.027818921953439713, -0.03290789946913719, -0.08835701644420624, 0.05051668360829353, 0.06517168134450912, -0.3563655614852905, 0.1088382825255394, 0.03127599135041237, -0.06573168933391571, 0.23608478903770447, 0.11201659590005875, 0.04572172462940216, -0.2304152101278305, 0.16187968850135803, 0.10729582607746124, 0.18041037023067474, -0.12239189445972443, -0.1222611591219902, 0.21139229834079742, -0.0666293278336525, 0.053944263607263565, 0.04531879350543022, 0.016704481095075607], [-0.016811039298772812, -0.059423502534627914, 0.0824807733297348, -0.04545443505048752, -0.10090400278568268, -0.05433911830186844, 0.05927766114473343, 0.1436566412448883, 0.22386033833026886, -0.08457791805267334, 0.061230555176734924, 0.021678024902939796, -0.15608321130275726, 0.2788097560405731, -0.20297762751579285, 0.033801205456256866, -0.14849385619163513, 0.08636444807052612, 0.054777953773736954, 0.02651597000658512, -0.08977698534727097, -0.12769687175750732, -0.009454197250306606, 0.29135262966156006, 0.061983585357666016, 0.060890451073646545, -0.1384223848581314, -0.11779164522886276, -0.3165171146392822, -0.06611888855695724, 0.08129025250673294, 0.02547348663210869, 0.15426212549209595, 0.04492427408695221, 0.03673066198825836, 0.057238753885030746, -0.12621833384037018, -0.026036515831947327, 0.11282336711883545, -0.1854298859834671, 0.2372746467590332, -0.0072230687364935875, 0.005626786034554243, 0.07415878027677536, 0.053733598440885544, -0.10953336209058762, 0.02071494050323963, -0.1794867366552353, -0.04944109916687012, 0.04003611207008362, -0.10500311106443405, -0.012764043174684048, -0.12071375548839569, 0.11347116529941559, 0.09895147383213043, 0.01535516232252121, 0.13353034853935242, 0.12625204026699066, -0.12855273485183716, -0.06115411967039108, -0.2637920081615448, -0.13000832498073578, -0.05832567438483238, -0.18248946964740753]], "bias": [0.0, 0.0013004676438868046, 0.0008341590873897076, -0.0013398337177932262, 0.0004467639955691993, -0.003728143870830536, 0.004221213981509209, -0.0010685417801141739, 0.0, -0.00033432862255722284, -0.002114576753228903, 0.0006205830140970647, -0.001288640545681119, 0.006678115110844374, 0.000918563106097281, -0.00010017526801675558, 0.0009185611852444708, 0.0, 0.0, -0.0027410308830440044, 0.0027322580572217703, -0.003977514803409576, -0.0005356225883588195, 0.0016200453974306583, 0.0004956250195391476, 0.0008594017126597464, -0.001968383090570569, -0.0016687847673892975, 0.0017447113059461117, -0.00512363575398922, 0.0, 0.0034934484865516424, 0.0021750875748693943, -0.0011190349468961358, 0.003981482703238726, 0.0, 0.0, 0.003504005493596196, 0.00384099455550313, -0.0018163599306717515, -0.002449878491461277, -0.00021466606995090842, -0.005283796694129705, 0.001407315256074071, -0.006968843750655651, 0.0, -0.0027152239345014095, -0.0037591648288071156, 0.0005314629524946213, 0.0041240304708480835, -0.002603943692520261, 0.0006434008246287704, 0.0, 0.0011408156715333462, -0.0020010643638670444, 0.0021235852036625147, 0.00529026472941041, 0.005437863525003195, 0.0, 0.002721392083913088, 0.0033136941492557526, 0.005479616578668356, 0.0, -0.004961009137332439]}, {"weight": [[-0.37402257323265076, -0.025138452649116516, -0.12762071192264557, 0.2708275616168976, 0.2076842039823532, 0.26499736309051514, -0.0865401104092598, -0.025957567617297173, 0.2953774034976959, -0.20183156430721283, 0.14834684133529663, -0.24498754739761353, -0.05758470296859741, -0.10057050734758377, 0.2778075039386749, -0.21545261144638062, -0.019615039229393005, 0.2098962366580963, 0.015498049557209015, 0.040081847459077835, -0.1315983235836029, -0.3387356996536255, 0.2419741302728653, -0.02669207938015461, -0.40310558676719666, -0.052120108157396317, -0.42366909980773926, 0.13678832352161407, -0.11227820068597794, 0.029393894597887993, -0.014094056561589241, -0.17485783994197845], [0.248011514544487, 0.023784566670656204, 0.03633834421634674, 0.06055328622460365, 0.02644551917910576, 0.39451926946640015, 0.1551695615053177, 0.14514879882335663, 0.1445629745721817, -0.14361129701137543, 0.11647965759038925, 0.07025690376758575, 0.008098570629954338, 0.157965287566185, -0.12077152729034424, 0.13101260364055634, 0.4256926476955414, 0.0960921123623848, 0.359343022108078, -0.1681627780199051, -0.17792150378227234, -0.017518917098641396, -0.1375522017478943, 0.08149510622024536, 0.026989424601197243, 0.019984198734164238, -0.24073752760887146, -0.14957039058208466, -0.02817036397755146, -0.18781475722789764, -0.1371798813343048, -0.08575692772865295], [0.12974649667739868, -0.16385295987129211, 0.0883866399526596, -0.30027708411216736, -0.42541274428367615, -0.035000141710042953, 0.08374948799610138, -0.11094529926776886, -0.042696014046669006, -0.13924163579940796, 0.15636754035949707, -0.05848102271556854, 0.03782997652888298, 0.1201920211315155, -0.08854928612709045, 0.4193570911884308, -0.001433756435289979, 0.1828235387802124, 0.01567975990474224, 0.04813748970627785, 0.08278640359640121, -0.13280467689037323, -0.21069233119487762, -0.08695489913225174, 0.07813356071710587, -0.15537525713443756, 0.03286103904247284, -0.034445978701114655, -0.2922857105731964, -0.21996359527111053, -0.08935222029685974, 0.03809129446744919], [0.08487911522388458, 0.21534189581871033, -0.11190095543861389, -0.17623354494571686, -0.01487887091934681, 0.013840576633810997, 0.13063637912273407, -0.16562752425670624, -0.03795317932963371, -0.13268278539180756, 0.1392502784729004, -0.10545331239700317, -0.10809900611639023, -0.10291846841573715, -0.034473031759262085, 0.33810684084892273, 0.011780993081629276, -0.08475985378026962, -0.07041653245687485, 0.09487809240818024, -0.15310542285442352, 0.15323999524116516, -0.25642460584640503, 0.08543810993432999, 0.0602673776447773, -0.21318262815475464, -0.1971907913684845, -0.07334041595458984, -0.12695221602916718, 0.054640673100948334, -0.1281406581401825, -0.13847698271274567], [0.09519355744123459, -0.00711413798853755, -0.020767316222190857, 0.03542308509349823, -0.17337587475776672, 0.03133867681026459, 0.07323521375656128, 0.08870015293359756, -0.35758402943611145, 0.011636639013886452, -0.41368699073791504, -0.3292175531387329, -0.05136995017528534, 0.029256783425807953, 0.07755298167467117, 0.0020319700706750154, 0.1453198492527008, 0.12697690725326538, 0.11526845395565033, -0.07212930172681808, -0.06185398995876312, -0.18703804910182953, -0.002879493637010455, 0.12860432267189026, -0.03221045061945915, 0.1286768913269043, -0.08577053248882294, -0.0936724841594696, -0.1402725875377655, -0.07906749099493027, 0.10596654564142227, 0.03289204463362694], [0.09910491108894348, -0.148837611079216, -0.045661453157663345, -0.32620301842689514, -0.1592758446931839, 0.20376011729240417, 0.16875705122947693, -0.14087001979351044, 0.14695404469966888, 0.04107733070850372, 0.02968493662774563, -0.11699484288692474, -0.12773633003234863, 0.06719411164522171, 0.04179850593209267, -0.05847713351249695, 0.05543727055191994, 0.09597080200910568, 0.008698348887264729, -0.09772417694330215, -0.09261248260736465, -0.03277608007192612, 0.08519299328327179, -0.2265460342168808, -0.15836842358112335, -0.22988207638263702, 0.18551510572433472, 0.08083022385835648, -0.05920463427901268, -0.1681492179632187, -0.14794093370437622, -0.09031786024570465], [0.0557444728910923, 0.09473444521427155, 0.037385858595371246, -0.0066653029061853886, -0.3020973205566406, 0.13332761824131012, -0.08693654835224152, -0.055768437683582306, -0.11908063292503357, 0.18191058933734894, 0.13341890275478363, -0.04783766716718674, 0.038491614162921906, 0.16602970659732819, -0.21658192574977875, 0.076888307929039, -0.06547272205352783, -0.16262444853782654, -0.08910571783781052, 0.12147487699985504, -0.07645118981599808, 0.09222622215747833, 0.107871413230896, 0.010530286468565464, -0.019797010347247124, 0.03483014926314354, 0.285821795463562, 0.13848161697387695, -0.24005161225795746, 0.10657975822687149, 0.01903814636170864, -0.13130107522010803], [-0.06467461585998535, 0.026678787544369698, -0.08356576412916183, -0.2277129739522934, -0.17785529792308807, -0.1294463574886322, -0.013734153471887112, 0.00912861991673708, -0.004645451437681913, 0.06773930042982101, -0.17441236972808838, -0.060872260481119156, 0.09767655283212662, -0.13143794238567352, 0.34306907653808594, -0.1241084560751915, 0.1860889494419098, -0.15383997559547424, 0.12289302051067352, -0.1634581834077835, -0.15255825221538544, 0.23157764971256256, 0.0022223705891519785, 0.048002470284700394, -0.15639933943748474, 0.05243783816695213, -0.2504807710647583, -0.1900143325328827, -0.37889623641967773, 0.07955043017864227, 0.022539271041750908, 0.026415923610329628], [0.1218772679567337, 0.01993200182914734, 0.1308264434337616, -0.1926898956298828, -0.05059215426445007, 0.30655720829963684, 0.2295033037662506, 0.11543794721364975, 0.09210427850484848, -0.06983718276023865, -0.0037068850360810757, 0.06496162712574005, -0.2827773690223694, 0.09082717448472977, 0.016596529632806778, -0.11707574129104614, 0.442822128534317, 0.04276793450117111, 0.13271665573120117, -0.08050713688135147, 0.12503527104854584, -0.08830004930496216, 0.22476427257061005, -0.09677106142044067, -0.140711709856987, -0.12180057168006897, -0.07563280314207077, -0.0619741789996624, -0.1191854178905487, 0.10248103737831116, 0.06634402275085449, 0.09543344378471375], [0.08080387115478516, 0.08275429904460907, -0.14269044995307922, 0.014583690091967583, 0.2265949845314026, -0.07998137921094894, -0.034520652145147324, -0.018740752711892128, 0.05126102641224861, -0.14174391329288483, 0.02885263040661812, 0.11156760901212692, 0.06051667034626007, -0.08402689546346664, 0.008541475050151348, 0.025141580030322075, -0.031136322766542435, -0.05208594724535942, 0.06814935803413391, 0.05621175840497017, -0.018552741035819054, -0.232366681098938, -0.07812948524951935, -0.041592858731746674, -0.07368528097867966, 0.05493801087141037, 0.2126244753599167, 0.2849076986312866, 0.11645454168319702, -0.15738849341869354, 0.1492367833852768, 0.015111277811229229], [0.07932084798812866, -0.14490514993667603, -0.039132773876190186, 0.004517268855124712, 0.10092221200466156, 0.1829020380973816, -0.15727058053016663, -0.18486860394477844, -0.015239659696817398, -0.029138699173927307, -0.0375785306096077, -0.17620064318180084, -0.2703482508659363, -0.1427757441997528, 0.0899677500128746, -0.057236090302467346, 0.048935115337371826, -0.09657104313373566, 0.14140096306800842, 0.0016146672423928976, 0.12440092861652374, -0.04206104576587677, -0.17277652025222778, -0.08502446860074997, -0.017477283254265785, -0.05371089652180672, -0.33324912190437317, 0.1741812527179718, -0.1667013168334961, 0.1304263323545456, 0.11276594549417496, 0.2623843252658844], [0.16838110983371735, 0.28451138734817505, 0.04789707064628601, 0.05142508074641228, 0.023396454751491547, 0.050377193838357925, -0.14015981554985046, 0.324075847864151, 0.13606922328472137, 0.1920810341835022, 0.3130245804786682, 0.19954167306423187, -0.030625855550169945, -0.15096183121204376, 0.1445089727640152, 0.2504728138446808, -0.010174216702580452, -0.16431133449077606, -0.33656173944473267, 0.06383784860372543, 0.18073758482933044, 0.058181021362543106, -0.11908487975597382, 0.1815354824066162, -0.05947413295507431, -0.050331227481365204, -0.08062685281038284, -0.09519350528717041, 0.17907999455928802, 0.04629218578338623, -0.20891758799552917, -0.24100561439990997], [0.050881966948509216, -0.04549997299909592, -0.008914552628993988, 0.032301731407642365, 0.0031745426822453737, 0.09265061467885971, -0.04334109276533127, -0.07883158326148987, -0.1259324848651886, 0.05255463346838951, 0.15954792499542236, 0.21567215025424957, -0.1064191460609436, -0.03670082986354828, 0.04757854714989662, 0.0746605396270752, 0.23788073658943176, -0.02251921407878399, 0.00011987164180027321, -0.3297187387943268, 0.21969744563102722, -0.027616098523139954, 0.002923350315541029, 0.05930974707007408, 0.08205125480890274, -0.4743443429470062, -0.05973617732524872, -0.09660415351390839, 0.09999031573534012, 0.5002216100692749, -0.20640555024147034, -0.00980132445693016], [0.11795109510421753, -0.20310434699058533, 0.058235760778188705, 0.20323853194713593, -0.29089298844337463, 0.2644396424293518, -0.11237722635269165, 0.16801366209983826, 0.2742440402507782, 0.05817871168255806, -0.1310449242591858, 0.17660978436470032, -0.08001099526882172, 0.07417595386505127, -0.16153568029403687, 0.13697578012943268, -0.052348315715789795, -0.22931097447872162, 0.06651207059621811, -0.015549231320619583, -0.20859967172145844, 0.22876425087451935, -0.31232962012290955, 0.17915837466716766, 0.05096723511815071, -0.2882680892944336, -0.003651469247415662, -0.18091703951358795, -0.135844424366951, -0.3253270983695984, 0.08031351864337921, -0.07685364037752151], [-0.017260154709219933, -0.1391039341688156, -0.229448139667511, -0.260454922914505, -0.005028910469263792, -0.03280821070075035, 0.24191328883171082, -0.2327938675880432, -0.06682807207107544, 0.20149917900562286, -0.17834226787090302, 0.14032526314258575, 0.12630803883075714, -0.07974985241889954, 0.25072935223579407, 0.13053584098815918, 0.1153603345155716, 0.05622858181595802, 0.12677547335624695, 0.09472622722387314, -0.02122948318719864, 0.06946514546871185, -0.1267634630203247, -0.15668904781341553, 0.11017046868801117, 0.24315036833286285, 0.0717971995472908, 0.05747571960091591, -0.021419158205389977, 0.058748967945575714, -0.029086142778396606, 0.18161869049072266], [0.04740516096353531, -0.01763969287276268, -0.02017919346690178, 0.04009711742401123, 0.028377750888466835, -0.035777781158685684, 0.1493469774723053, -0.07982320338487625, 0.058903101831674576, 0.4461347460746765, -0.045914970338344574, 0.11267703771591187, 0.13395917415618896, 0.405775249004364, -0.1340903639793396, -0.18118730187416077, -0.04381266608834267, 0.19590981304645538, -0.05830283463001251, -0.04032047465443611, 0.031728409230709076, 0.04348883405327797, 0.335824191570282, 0.12838731706142426, -0.3695995509624481, 0.1297839730978012, 0.22787295281887054, -0.022513240575790405, 0.0771012008190155, 0.1019497811794281, 0.2517220973968506, -0.040855515748262405], [-0.16394495964050293, 0.12210309505462646, -0.031193438917398453, 0.01798202656209469, -0.056939903646707535, -0.1430884748697281, 0.2584567070007324, -0.10785271972417831, -0.03914513811469078, -0.2357073426246643, -0.1157909408211708, 0.03735749423503876, -0.043299634009599686, -0.24097582697868347, 0.06991226226091385, -0.007003219798207283, 0.203722283244133, 0.03945730999112129, -0.018154442310333252, 0.17552311718463898, -0.08986910432577133, 0.008174370042979717, -0.0360453799366951, -0.13466185331344604, -0.05787314102053642, -0.14561735093593597, -0.12481600791215897, -0.0054823365062475204, -0.24419134855270386, 0.07885028421878815, 0.056568339467048645, 0.0652083083987236], [-0.06383602321147919, -0.1313111037015915, -0.12279258668422699, 0.07423752546310425, 0.07804613560438156, -0.042695898562669754, -0.13658742606639862, 0.23614124953746796, -0.11837352812290192, 0.2740422785282135, -0.002426176331937313, -0.0055641778744757175, 0.21461933851242065, 0.06136775761842728, 0.08212102949619293, 0.021396124735474586, 0.23480603098869324, -0.1043255627155304, -0.09176196157932281, -0.033408332616090775, -0.0006280853995122015, 0.08375968039035797, 0.21050430834293365, 0.1109311580657959, -0.035092227160930634, 0.055730272084474564, 0.2283613383769989, 0.057204436510801315, 0.10201024264097214, 0.03471700847148895, 0.07708348333835602, -0.23517462611198425], [0.15716701745986938, -0.26482507586479187, 0.11932592839002609, 0.15654639899730682, 0.18308235704898834, -0.15978384017944336, -0.23475198447704315, -0.043908923864364624, 0.0012805022997781634, -0.17105481028556824, 0.11473917216062546, 0.09848766773939133, 0.1492762565612793, -0.12053060531616211, 0.18157988786697388, 0.186428964138031, -0.26518514752388, -0.12091749906539917, 0.017922477796673775, 0.042220767587423325, 0.12781685590744019, 0.20936690270900726, -0.29692432284355164, -0.049708399921655655, -0.19005773961544037, 0.1607261300086975, -0.02271086722612381, -0.10899443179368973, -0.11384067684412003, 0.3371417820453644, 0.12035580724477768, -0.1086949035525322], [-0.1738804280757904, 0.07460703700780869, 0.20143355429172516, 0.07212663441896439, 0.08851630985736847, -0.04865952953696251, -0.0897495448589325, 0.09261730313301086, -0.25650373101234436, -0.16952113807201385, 0.020374074578285217, -0.22799232602119446, -0.0999862477183342, -0.04025943949818611, -0.25606539845466614, -0.09408470243215561, 0.09001655876636505, -0.00016001710901036859, 0.024219147861003876, -0.2061365246772766, 0.0773903876543045, -0.08488164842128754, -0.10573240369558334, -0.224156454205513, 0.05140462890267372, -0.08882951736450195, -0.1968446522951126, -0.14030764997005463, -0.056612320244312286, -0.40715542435646057, -0.11249461024999619, -0.0821228176355362], [-0.10609354078769684, -0.014653380960226059, 0.010420937091112137, -0.05417986959218979, 0.03146672248840332, 0.06430818140506744, 0.3523932695388794, 0.34204140305519104, 0.15655064582824707, -0.21433569490909576, -0.14887218177318573, -0.053577713668346405, -0.2587003707885742, 0.009298319928348064, 0.07844919711351395, -0.05577193945646286, -0.3487500846385956, 0.002393085043877363, -0.08303824067115784, 0.022095289081335068, 0.32254987955093384, -0.04160666465759277, -0.06821908056735992, -0.06980720162391663, 0.07285387068986893, -0.00047321541933342814, 0.09793861210346222, -0.08940056711435318, -0.06376193463802338, -0.17600980401039124, -0.30734145641326904, -0.09254588931798935], [0.2588808238506317, 0.10243254154920578, 0.029469866305589676, -0.008638400584459305, 0.05839737877249718, -0.07142152637243271, 0.18445654213428497, -0.06777336448431015, -0.07550513744354248, -0.07777468860149384, -0.0716937854886055, 0.2541191875934601, -0.1478126496076584, 0.11901597678661346, -0.24544449150562286, 0.15299175679683685, -0.04754585772752762, -0.11112475395202637, -0.017108149826526642, -0.18319514393806458, 0.022752072662115097, -0.014078485779464245, 0.17125537991523743, -0.10719367116689682, -0.177260622382164, 0.011729889549314976, 0.2095465362071991, -0.1072225272655487, -0.010663009248673916, 0.09051651507616043, -0.033289585262537, 0.1779574751853943], [-0.13342474400997162, 0.07220254093408585, -0.10096225142478943, 0.11901400238275528, -0.07154580950737, -0.11506307870149612, -0.08072920143604279, 0.22908546030521393, -0.21727052330970764, 0.018540892750024796, -0.10621830075979233, -0.16021811962127686, -0.09696001559495926, -0.02255982533097267, 0.14542590081691742, 0.003370242891833186, -0.10042023658752441, 0.1692781299352646, -0.17108577489852905, -0.04977339133620262, 0.0569646954536438, -0.25360777974128723, 0.010755743831396103, -0.22335109114646912, -0.08677169680595398, -0.2721647322177887, 0.11330538243055344, -0.04286133125424385, 0.16015465557575226, -0.20520322024822235, 0.010326439514756203, 0.26507729291915894], [0.03327438235282898, -0.04957205429673195, 0.2248130440711975, -0.13698554039001465, 0.055584657937288284, 0.04084651544690132, 0.3183451294898987, -0.10765990614891052, 0.17102694511413574, 0.08148740231990814, -0.13691648840904236, -0.14931340515613556, -0.0029116026125848293, 0.0014116124948486686, 0.12061938643455505, 0.08533008396625519, -0.05924217402935028, -0.07990831136703491, -0.13464607298374176, 0.06532052904367447, 0.08537384122610092, -0.16243308782577515, -0.026255514472723007, 0.2216324806213379, -0.24573712050914764, 0.1479128748178482, 0.10814601927995682, 0.18882469832897186, 0.20221047103405, -0.10610156506299973, -0.134556844830513, -0.1779499053955078], [-0.034034598618745804, -0.012240118347108364, -0.09399550408124924, -0.1624346822500229, -0.1173277497291565, -0.2512470483779907, -0.04405149072408676, 0.04458758980035782, -0.013425104320049286, 0.04249592125415802, 0.06782297790050507, 0.16039548814296722, -0.08792132884263992, -0.0271352119743824, -0.09226997941732407, -0.20946872234344482, -0.08586898446083069, 0.15791498124599457, 0.13564452528953552, 0.34366393089294434, 0.13233798742294312, 0.06492096930742264, -0.21517278254032135, 0.1858973354101181, 0.2205929160118103, 0.09347857534885406, -0.16258272528648376, 0.1837044358253479, -0.009787402115762234, -0.20220977067947388, -0.10360816866159439, 0.05752461031079292], [-0.07329897582530975, -0.04977228119969368, 0.12916558980941772, 0.06030089035630226, 0.1178828701376915, -0.08981016278266907, 0.23458543419837952, 0.052875813096761703, 0.11599399894475937, 0.05126350000500679, 0.0017582618165761232, -0.01451209094375372, -0.13507550954818726, -0.2028389573097229, 0.03270023688673973, 0.10059620440006256, -0.1965787410736084, 0.034281663596630096, -0.09196825325489044, -0.048187125474214554, 0.264647513628006, -0.0018025179160758853, -0.35047972202301025, 0.3573119342327118, -0.11622516810894012, 0.07869210839271545, -0.1432647556066513, 0.07774356007575989, 0.095986008644104, 0.08798391371965408, -0.01391056552529335, -0.031583089381456375], [0.11531831324100494, -0.009813164360821247, -0.043590739369392395, 0.10812003165483475, -0.019347110763192177, -0.14725755155086517, -0.05551785230636597, -0.058110181242227554, -0.2595920264720917, -0.015994573011994362, 0.2410804182291031, -0.031608644872903824, -0.07333964854478836, 0.02284824289381504, -0.13201788067817688, -0.041095659136772156, 0.16752155125141144, 0.0588669590651989, -0.1698537915945053, 0.09709756821393967, 0.012882323935627937, 0.02442891336977482, -0.04711509495973587, -0.08329450339078903, 0.06288038194179535, 0.1820233017206192, -0.008207748644053936, -0.10539112985134125, -0.19440414011478424, -0.16973274946212769, 0.12034105509519577, -0.19043147563934326], [-0.11451762169599533, -0.1350197196006775, 0.05977003648877144, -0.30804669857025146, -0.12262634932994843, 0.37718161940574646, -0.06030197814106941, -0.05130118504166603, 0.046448249369859695, -0.1464141607284546, -0.041632771492004395, 0.034131914377212524, 0.08731541037559509, 0.06573671102523804, -0.1323498785495758, 0.0063520194962620735, -0.10453417152166367, 0.36078935861587524, 0.05260468274354935, 0.24341340363025665, 0.17663370072841644, 0.015898117795586586, 0.03418189287185669, 0.19347813725471497, -0.12804697453975677, -0.1319594532251358, 0.20389412343502045, 0.03007950633764267, 0.12021288275718689, -0.16014884412288666, 0.10056078433990479, 0.005514840129762888], [-0.04304364696145058, 0.11307371407747269, -0.19885778427124023, 0.2170654684305191, 0.06725867837667465, 0.0662057101726532, 0.10630001872777939, -0.017836080864071846, -0.03223829343914986, -0.07453368604183197, -0.031992144882678986, 0.022480124607682228, -0.10579350590705872, -0.07922139763832092, 0.016492672264575958, -0.17673933506011963, -0.16480684280395508, -0.15922291576862335, -0.16264042258262634, 0.0864044800400734, 0.3089558184146881, -0.15391717851161957, 0.01075188722461462, 0.004343100357800722, -0.1271723061800003, 0.06530240178108215, 0.1302109956741333, -0.07770472764968872, -0.0036957061383873224, 0.3539409041404724, -0.0979539081454277, -0.08094728738069534], [0.026743173599243164, -0.13722437620162964, 0.06389807164669037, -0.12273596227169037, -0.1195773109793663, 0.07254349440336227, -0.17725911736488342, -0.2584070861339569, -0.10679218173027039, -0.1273604929447174, 0.24248388409614563, -0.21495211124420166, -0.027239440008997917, 0.026494862511754036, 0.08989221602678299, 0.03312241658568382, 0.09142894297838211, -0.24196864664554596, -0.08682354539632797, -0.15583732724189758, -0.06013106554746628, 0.05668580159544945, 0.04629805311560631, 0.033302754163742065, 0.08609503507614136, -0.011683790013194084, -0.16294342279434204, 0.1211618110537529, -0.0438784621655941, 0.013165006414055824, -0.039576102048158646, 0.05059937387704849], [-0.019810929894447327, -0.2034890204668045, 0.012121901847422123, 0.1667339950799942, 0.0910358875989914, -0.22292236983776093, -0.049321919679641724, 0.07223206758499146, -0.1219390407204628, 0.09653523564338684, -0.09280943870544434, -0.04584402218461037, 0.03015521913766861, 0.10821295529603958, -0.3620908558368683, -0.05556170269846916, -0.06635043770074844, -0.09891392290592194, -0.21660004556179047, 0.2673097252845764, -0.005984846968203783, 0.0432734340429306, -0.2878141701221466, 0.14649514853954315, -0.08040443807840347, -0.2529120147228241, 0.024031490087509155, -0.23474419116973877, -0.21561479568481445, -0.22237686812877655, 0.1918402910232544, -0.0703471302986145], [0.06875909864902496, 0.011661737225949764, -0.22234393656253815, 0.1209326982498169, 0.008862240239977837, -0.015761658549308777, -0.19039151072502136, 0.08878135681152344, 0.1264813244342804, 0.2539716958999634, 0.2104622721672058, -0.28199759125709534, -0.10716686397790909, 0.2912231385707855, -0.06289725005626678, -0.08590182662010193, 0.29505276679992676, -0.1145094782114029, -0.09404447674751282, 0.10703170299530029, -0.2143837809562683, 0.07016481459140778, -0.0851544439792633, -0.02819451503455639, 0.20682445168495178, 0.11634300649166107, -0.07620498538017273, -0.09802241623401642, -0.18081355094909668, -0.05631401389837265, 0.12739765644073486, 0.004446081817150116], [-0.15432076156139374, -0.05342109873890877, 0.06021800637245178, 0.39988264441490173, -0.22391609847545624, -0.09968100488185883, -0.06593317538499832, -0.14653518795967102, 0.03396281599998474, -0.2022206336259842, -0.17838644981384277, -0.1918453425168991, -0.3033886253833771, 0.3261245787143707, -0.25288188457489014, 0.19042642414569855, -0.0026047236751765013, 0.02262338437139988, -0.21244323253631592, 0.08591566979885101, 0.1932430863380432, -0.3688182234764099, 0.08000583201646805, 0.2743307948112488, -0.016523439437150955, 0.12564533948898315, 0.08367297053337097, -0.1366402506828308, 0.008612551726400852, -0.051416851580142975, 0.04925983399152756, -0.3427462577819824], [-0.05840675160288811, -0.14296980202198029, -0.04784791171550751, -0.05345255881547928, 0.2342216521501541, 0.06569784134626389, -0.08568566292524338, -0.2813991606235504, -0.19839702546596527, -0.02811216562986374, -0.2153223305940628, -0.10658615082502365, -0.10417547076940536, 0.3245035409927368, 0.04897701367735863, 0.11971180886030197, -0.04114511236548424, -0.018641537055373192, 0.022761141881346703, -0.08189664781093597, 0.053049344569444656, 0.03433459252119064, -0.20432275533676147, -0.11331017315387726, 0.2516877353191376, 0.009815414436161518, -0.030381303280591965, 0.010927119292318821, -0.02332955226302147, 0.017144540324807167, 0.12242153286933899, 0.21274177730083466], [0.08402416110038757, -0.05105268210172653, 0.09139900654554367, 0.12867379188537598, -0.1371399313211441, -0.05900787189602852, 0.12023351341485977, -0.14016085863113403, 0.15310142934322357, -0.18495412170886993, 0.00889685470610857, -0.02419203706085682, -0.10588066279888153, -0.1314617544412613, -0.20626302063465118, -0.05454477295279503, -0.47107136249542236, 0.29684123396873474, 0.28725263476371765, 0.12326007336378098, 0.050716888159513474, 0.20126979053020477, -0.3171917796134949, -0.03920943662524223, -0.17890574038028717, 0.22752246260643005, 0.044571224600076675, 0.07483670860528946, -0.004856199026107788, -0.10817939788103104, 0.13685458898544312, 0.0580078661441803], [0.21855489909648895, 0.2647266089916229, 0.06954324245452881, 0.11330343782901764, 0.13265101611614227, 0.013385801576077938, 0.04930031672120094, 0.389851838350296, -0.07118067145347595, -0.1130572035908699, -0.08124642819166183, 0.008041711524128914, 0.10143464803695679, 0.0803699791431427, 0.013970325700938702, -0.05245271325111389, -0.09786711633205414, 0.1483422964811325, 0.16533870995044708, 0.1558193415403366, 0.09320913255214691, -0.010418261401355267, 0.09464231878519058, 0.01914018765091896, 0.12256189435720444, 0.18151149153709412, 0.016463039442896843, 0.10758868604898453, 0.1740594208240509, 0.12459833174943924, -0.07498551160097122, 0.013369486667215824], [0.08319545537233353, -0.16200312972068787, 0.18279455602169037, -0.16089507937431335, -0.142511785030365, 0.027697477489709854, -0.018569093197584152, -0.2732551097869873, 0.20254649221897125, 0.3258759081363678, 0.015178489498794079, 0.1285572350025177, 0.07356207817792892, -0.039059143513441086, -0.058371271938085556, -0.34011322259902954, 0.05672822520136833, 0.09734208136796951, -0.08001662790775299, -0.04730193316936493, -0.21534359455108643, -0.09524098038673401, 0.054504744708538055, -0.122956782579422, 0.07373417913913727, 0.20994287729263306, -0.06892626732587814, -0.08393095433712006, -0.2234935462474823, 0.2247881442308426, -0.062431637197732925, -0.099408820271492], [-0.14811234176158905, 0.036008160561323166, -0.08240481466054916, 0.24748024344444275, -0.2709541320800781, -0.11414731293916702, 0.16047805547714233, -0.06707700341939926, -0.16846592724323273, 0.1757339984178543, -0.16292314231395721, 0.08614909648895264, 0.07932768762111664, -0.1328963339328766, 0.015027366578578949, -0.18700513243675232, -0.3047082722187042, -0.17717663943767548, 0.026044538244605064, -0.19183018803596497, -0.153675839304924, 0.19751755893230438, 0.08579784631729126, -0.13748347759246826, 0.17359556257724762, 0.06919821351766586, -0.08302830904722214, 0.03647734597325325, 0.23754727840423584, 0.11731856316328049, 0.17880451679229736, 0.13343855738639832], [-0.18756558001041412, 0.06616570800542831, 0.06959526240825653, -0.035756513476371765, 0.03370058909058571, 0.2510412931442261, 0.0876692682504654, 0.0758524090051651, 0.015645259991288185, 0.18250975012779236, -0.03897545114159584, -0.11518803238868713, 0.16664807498455048, 0.11414789408445358, 0.10091930627822876, 0.0930996686220169, -0.2935478985309601, -0.012430853210389614, 0.05521489679813385, 0.0690607950091362, 0.10895394533872604, 0.09219492971897125, 0.038548391312360764, -0.0650278627872467, -0.03822925314307213, 0.23792429268360138, 0.07044316083192825, -0.06843751668930054, -0.04222814366221428, -0.09169843792915344, 0.09453360736370087, 0.06731989979743958], [0.0619342215359211, 0.14395351707935333, -0.1507614701986313, 0.07383659482002258, -0.21394027769565582, -0.12188059836626053, -0.2067626565694809, -0.13431793451309204, -0.02572457678616047, 0.1788967400789261, 0.0043725003488361835, -0.22255438566207886, 0.08632614463567734, 0.09509722888469696, -0.028405338525772095, -0.037365078926086426, -0.22444365918636322, -0.1289694458246231, -0.038623351603746414, -0.08372301608324051, 0.13427792489528656, -0.1392267346382141, 0.11786967515945435, 0.09815636277198792, 0.02081180177628994, 0.16048410534858704, 0.3337191939353943, -0.237282395362854, 0.03206729143857956, -0.05798307806253433, 0.027342820540070534, 0.11136073619127274], [-0.08558626472949982, 0.025653604418039322, -0.08591750264167786, -0.10512614250183105, -0.06812892109155655, 0.1496337652206421, -0.05541657283902168, 0.1191776841878891, 0.03512181341648102, -0.07921934127807617, 0.08912985026836395, -0.047180790454149246, 0.15592904388904572, 0.04651017114520073, -0.017523815855383873, -0.11346258223056793, 0.22237007319927216, -0.06685667484998703, 0.1592441201210022, -0.15488296747207642, -0.10236455500125885, 0.055440135300159454, 0.0998847708106041, 0.3293423056602478, 0.035015273839235306, 0.019230162724852562, 0.14650964736938477, -0.024841774255037308, -0.26765677332878113, -0.15398895740509033, 0.07704177498817444, 0.10038284212350845], [-0.39799919724464417, -0.20664846897125244, -0.04505844786763191, -0.020739853382110596, -0.22368012368679047, 0.06407614052295685, -0.03555237501859665, -0.05310186743736267, 0.07355997711420059, 0.056553810834884644, 0.042088646441698074, -0.3769717812538147, 0.11851659417152405, 0.10131905227899551, 0.18031752109527588, 0.09268414974212646, -0.260201096534729, -0.11345184594392776, 0.042487192898988724, 0.14370626211166382, -0.1409374177455902, -0.001843673991970718, 0.08324478566646576, -0.16506549715995789, 0.1029810681939125, 0.20267686247825623, 0.08331887423992157, 0.10788049548864365, 0.11494902521371841, -0.10323723405599594, -0.20075508952140808, -0.06951086968183517], [0.1319049596786499, 0.09174564480781555, -0.0931442528963089, 0.18679027259349823, 0.1261998862028122, 0.059523772448301315, -0.049136385321617126, 0.14842809736728668, 0.004254218656569719, 0.19127781689167023, -0.025748398154973984, 0.03759058937430382, -0.343474417924881, -0.10198768228292465, 0.34834107756614685, -0.35670357942581177, -0.2316855490207672, -0.09731442481279373, 0.25123751163482666, -0.1054554209113121, -0.09934217482805252, 0.0340644046664238, -0.013317722827196121, 0.11878103017807007, -0.01606396585702896, -0.11610247194766998, -0.19280581176280975, 0.06360015273094177, -0.007665123790502548, -0.1037772074341774, -0.16665133833885193, 0.20791774988174438], [-0.031110530719161034, 0.26103848218917847, -0.24149848520755768, 0.13207237422466278, 0.11313245445489883, -0.1602117121219635, 0.0554388053715229, -0.06998113542795181, -0.18576256930828094, -0.11783444881439209, 0.022665582597255707, -0.26658058166503906, 0.3254068195819855, -0.10407703369855881, 0.06466127187013626, 0.014785733073949814, -0.11324319988489151, 0.03635276481509209, 0.07539249211549759, 0.03140230104327202, -0.09597483277320862, 0.01811358332633972, 0.10835254192352295, 0.07052309066057205, 0.11770043522119522, 0.13853822648525238, 0.16601070761680603, 0.01629270613193512, -0.10996288806200027, 0.14412763714790344, -0.05594233423471451, 0.30362075567245483], [0.14672154188156128, 0.09336556494235992, 0.11852510273456573, -0.2134556919336319, 0.06617560237646103, 0.1139078289270401, -0.045820336788892746, -0.20372092723846436, 0.022730588912963867, 0.13193856179714203, 0.38473081588745117, 0.041034355759620667, 0.11239335685968399, -0.11790810525417328, 0.14001494646072388, 0.004000658635050058, -0.09799952059984207, -0.20327183604240417, -0.12837010622024536, -0.05852500721812248, 0.11812128126621246, 0.3296293616294861, 0.11173997819423676, -0.021560218185186386, -0.09849175065755844, -0.0015952648827806115, 0.03243337199091911, 0.36922597885131836, -0.12466707825660706, 0.02837487682700157, -9.286210115533322e-05, 0.06936068832874298], [0.010595257394015789, -0.14699828624725342, -0.040664710104465485, -0.04618484526872635, 0.10263236612081528, 0.014371141791343689, -0.11396607756614685, -0.04209721460938454, 0.05036680027842522, 0.04992799460887909, 0.039321787655353546, -0.286792129278183, -0.22874511778354645, -0.0804741233587265, -0.10878331959247589, -0.011974657885730267, 0.015643645077943802, 0.31254011392593384, -0.04029920697212219, 0.10788216441869736, 0.11946462094783783, 0.20944704115390778, 0.16083358228206635, 0.01471228152513504, -0.11010812222957611, 0.06161902844905853, -0.14750155806541443, 0.19563141465187073, 0.08431798219680786, -0.00898799579590559, 0.06287627667188644, -0.20949968695640564], [0.06045433133840561, -0.0037689569871872663, 0.1674635410308838, -0.01910902000963688, -0.10707747936248779, -0.28260913491249084, -0.0478241853415966, 0.2043318897485733, -0.07644059509038925, 0.2439657747745514, -0.0725562646985054, -0.017324261367321014, -0.24425500631332397, 0.07979195564985275, 0.2880637049674988, -0.10636668652296066, 0.06715276092290878, 0.14002080261707306, -0.031115619465708733, -0.10226787626743317, -0.14849448204040527, 0.07108226418495178, -0.04648590460419655, 0.1016281396150589, 0.19434219598770142, 0.016337977722287178, -0.2035965919494629, 0.06500416249036789, 0.17554925382137299, 0.2407807856798172, 0.004335271660238504, 0.14478544890880585], [0.1251847892999649, 0.08728526532649994, 0.05863235890865326, 0.20564240217208862, 0.1497291773557663, -0.231658935546875, 0.04471685364842415, -0.007036764640361071, 0.30598706007003784, -0.08849871158599854, -0.10603449493646622, -0.09371229261159897, 0.1432567685842514, 0.12128682434558868, 0.11074647307395935, 0.09472840279340744, -0.051567018032073975, -0.0883944109082222, 0.02589055895805359, -0.11669512093067169, -0.31072694063186646, -0.08273009210824966, -0.10849327594041824, -0.05887092649936676, 0.060099322348833084, 0.1116238608956337, -0.009704764001071453, -0.21527278423309326, 0.060970157384872437, 0.011872706934809685, 0.14231155812740326, 0.08157476782798767], [-0.07661820203065872, 0.04897688701748848, -0.20966479182243347, 0.0009115310967899859, -0.15013915300369263, -0.06003795191645622, -0.08006071299314499, 0.06794342398643494, 0.06724615395069122, -0.05739857628941536, 0.12902338802814484, -0.05994729697704315, -0.20494934916496277, 0.1260995715856552, -0.06932022422552109, 0.07319513708353043, -0.03422493860125542, -0.19667577743530273, -0.23112650215625763, -0.14140239357948303, 0.12397801876068115, 0.14844949543476105, -0.08525732904672623, -0.16013652086257935, -0.12630495429039001, 0.06537417322397232, -0.08439414948225021, -0.09227166324853897, 0.06500484049320221, -0.17767108976840973, 0.2170310914516449, 0.30769965052604675], [-0.11029509454965591, -0.054456599056720734, 0.010565632954239845, -0.045620109885931015, -0.28132307529449463, -0.17367656528949738, -0.03162641450762749, -0.06804603338241577, 0.25063663721084595, 0.11707726866006851, -0.143220916390419, 0.21593646705150604, 0.10185220837593079, 0.12727904319763184, -0.32381150126457214, -0.003321371041238308, -0.01017087697982788, 0.06767386943101883, 0.17392459511756897, -0.11067605763673782, -0.05463651940226555, -0.22504004836082458, -0.21274471282958984, 0.12526069581508636, 0.10320860147476196, 0.04756680876016617, 0.13236171007156372, 0.13431893289089203, 0.17603091895580292, -0.10987574607133865, 0.09263437241315842, -0.19291651248931885], [0.1828492134809494, -0.025848211720585823, 0.06786404550075531, -0.012502681463956833, -0.06641223281621933, 0.13890007138252258, 0.1592535823583603, -0.1317405104637146, -0.07674555480480194, -0.21902893483638763, 0.10917041450738907, -0.20061197876930237, 0.03175167366862297, -0.02849690057337284, -0.11655661463737488, 0.0305581446737051, -0.1266724169254303, 0.150891974568367, -0.030741272494196892, 0.07002822309732437, -0.07818683981895447, 0.11894272267818451, -0.15570597350597382, -0.0240313820540905, 0.007480949629098177, 0.09677065163850784, 0.15954406559467316, -0.1836439073085785, -0.018459348008036613, 0.12167920172214508, -0.13778044283390045, 0.15411913394927979], [-0.12357339262962341, -0.190207839012146, -0.09381792694330215, 0.03379695862531662, -0.0769762247800827, 0.12707796692848206, 0.0679951161146164, 0.011880788952112198, -0.04426690563559532, -0.07911375910043716, 0.11313758045434952, -0.03822953999042511, 0.12205199897289276, -0.14939242601394653, 0.04873831942677498, -0.09561151266098022, 0.11061925441026688, 0.14243924617767334, 0.12299560755491257, 0.11412548273801804, 0.06947214901447296, -0.24761025607585907, -0.08397027105093002, -0.14483867585659027, 0.06076918914914131, -0.18577736616134644, 0.0780976265668869, -0.05549846589565277, -0.09041085839271545, -0.08422744274139404, 0.18948394060134888, -0.01583981327712536], [-0.06133893132209778, -0.05277267098426819, -0.09920744597911835, -0.19824504852294922, -0.0014641325687989593, -0.040076542645692825, -0.17094473540782928, -0.050032634288072586, -0.0008473998168483377, -0.24325554072856903, 0.02520623989403248, 0.04642371088266373, -0.23069053888320923, 0.3434130549430847, 0.15575993061065674, -0.09398773312568665, 0.0004354204866103828, -0.1048046424984932, -0.06850779801607132, -0.17101185023784637, 0.10573092848062515, -0.01010506134480238, 0.2832745909690857, 0.20191043615341187, -0.08955797553062439, 0.18014591932296753, 0.16245749592781067, -0.029071616008877754, -0.18841759860515594, 0.05902612954378128, 0.13680797815322876, 0.09787210077047348], [0.04039532691240311, 0.037515997886657715, 0.002953006885945797, 0.11193020641803741, 0.1732632964849472, 0.06590574979782104, 0.1864045113325119, 0.023577256128191948, -0.20817333459854126, -0.12407244741916656, 0.18156100809574127, -0.11829690635204315, 0.14444349706172943, 0.0928308293223381, -0.09837634116411209, 0.12568406760692596, -0.06442932784557343, -0.0986575335264206, -0.09827157109975815, -0.04435991123318672, 0.1103457361459732, -0.08940829336643219, -0.14865709841251373, 0.05611638352274895, 0.18922773003578186, -0.022347310557961464, 0.1732172966003418, 0.015785571187734604, -0.02618061751127243, -0.19987469911575317, 0.14475448429584503, -0.1431347131729126], [-0.11667235195636749, 0.00016261189011856914, 0.05858546122908592, -0.08396276831626892, -0.2599541246891022, -0.13030867278575897, 0.21042926609516144, -0.16981200873851776, 0.16877047717571259, 0.061769336462020874, -0.07122138142585754, -0.1134338453412056, 0.10245885699987411, 0.03153395652770996, -0.0421002060174942, -0.09990651905536652, 0.32230299711227417, 0.16627006232738495, 0.15221427381038666, -0.05467382073402405, 0.0011732433922588825, -0.08020034432411194, 0.134246364235878, -0.1801682710647583, 0.012005694210529327, 0.3721728026866913, 0.05929499864578247, -0.06369052827358246, 0.20280538499355316, 0.14245542883872986, 0.019630296155810356, 0.045786768198013306], [0.23081080615520477, -0.007230657618492842, -0.1302318572998047, 0.029077451676130295, 0.0037567063700407743, 0.059150438755750656, 0.03290587291121483, 0.057243574410676956, -0.05972559377551079, -0.06487921625375748, -0.08030720800161362, -0.16184593737125397, -0.0861235186457634, 0.06906511634588242, -0.07319663465023041, -0.15152664482593536, 0.13730871677398682, 0.22382692992687225, 0.03338966146111488, 0.033825118094682693, 0.14209432899951935, 0.1866012066602707, 0.043550919741392136, -0.14442765712738037, 0.022254955023527145, -0.022838108241558075, -0.14233718812465668, -0.13326284289360046, -0.09536372870206833, -0.10431459546089172, -0.057428766041994095, -0.06517846137285233], [0.015252324752509594, 0.14566858112812042, -0.192053884267807, 0.13380950689315796, 0.1970754861831665, 0.06397508084774017, 0.008153204806149006, 0.11212193220853806, -0.2570732533931732, 0.019239773973822594, 0.03308568894863129, 0.01545350905507803, 0.05039900913834572, 0.0074272905476391315, 0.06612753868103027, -0.02803920768201351, 0.2865450382232666, -0.0021057482808828354, -0.01877090521156788, -0.039746496826410294, -0.01853444240987301, 0.05536076799035072, 0.025246575474739075, 0.13229946792125702, -0.061781249940395355, -0.1457234025001526, 0.15235906839370728, -0.2654627561569214, 0.1326775699853897, 0.04986986890435219, -0.03876805305480957, 0.09001780301332474], [0.036621857434511185, 0.0028548697009682655, 0.23036833107471466, 0.32437485456466675, -0.16787759959697723, 0.029294081032276154, -0.16699500381946564, -0.15288296341896057, 0.2865581810474396, 0.11489338427782059, -0.10304547101259232, 0.160053551197052, -0.09811199456453323, -0.14896567165851593, 0.19284480810165405, -0.025757495313882828, -0.14814695715904236, 0.2165665179491043, 0.1275610476732254, 0.01341623067855835, -0.18531499803066254, 0.15622898936271667, -0.038405053317546844, 0.05747804418206215, -0.1373041570186615, -0.27385884523391724, 0.012396414764225483, 0.13207697868347168, 0.3138599693775177, -0.10672913491725922, -0.06862618029117584, -0.1247585117816925], [-0.06347779929637909, -0.190325528383255, 0.04082642123103142, 0.119228295981884, -0.14084520936012268, -0.007017464842647314, 0.08800365030765533, -0.10132860392332077, -0.09703292697668076, -0.00960808340460062, -0.015781566500663757, 0.040647733956575394, -0.09949109703302383, -0.03518674895167351, -0.19102159142494202, -0.026820125058293343, -0.056855108588933945, 0.009051213972270489, -0.19373568892478943, 0.06710946559906006, -0.04006262496113777, -0.11882322281599045, 0.03545740246772766, -0.08855216205120087, -0.019280141219496727, -0.051524315029382706, -0.04206997901201248, -0.1189536303281784, -0.09905518591403961, -0.164435476064682, 0.2778644859790802, -0.1368912309408188], [-0.21241766214370728, 0.23726366460323334, -0.06460358202457428, 0.2881923317909241, 0.11467760801315308, -0.20105312764644623, 0.09339650720357895, -0.10706140846014023, 0.07778880000114441, -0.06127064302563667, -0.03546541556715965, 0.16770021617412567, -0.05943432077765465, -0.08609578758478165, -0.34378206729888916, -0.24768131971359253, 0.00784950703382492, -0.13433541357517242, 0.20799016952514648, -0.023016996681690216, 0.07730235904455185, 0.08655761182308197, -0.02783762477338314, -0.19019843637943268, 0.07219371199607849, -0.059675704687833786, 0.14402401447296143, -0.10475339740514755, -0.009782613255083561, -0.02239943854510784, -0.24866925179958344, -0.19173504412174225], [0.019339637830853462, 0.0020080762915313244, -0.16307896375656128, -0.04222773388028145, -0.045749254524707794, 0.23010309040546417, 0.006382279563695192, -0.1723954826593399, -0.2165016531944275, 0.16636216640472412, -0.01517294067889452, -0.23881381750106812, 0.11671851575374603, 0.1607116311788559, -0.3449113368988037, -0.05581929162144661, -0.14847807586193085, -0.022704672068357468, -0.11382860690355301, -0.050657834857702255, -0.11347230523824692, 0.014725570566952229, -0.16587693989276886, -0.018109861761331558, -0.20191816985607147, 0.06028365716338158, -0.1496025025844574, -0.260295569896698, 0.09732901304960251, -0.0847504660487175, 0.0742555484175682, 0.17880216240882874], [-0.00743077090010047, 0.1014379933476448, 